Smiles,0,1,2,3,4,5,6,7,8,9,10,11,12,13,14,15,16,17,18,19,20,21,22,23,24,25,26,27,28,29,30,31,32,33,34,35,36,37,38,39,40,41,42,43,44,45,46,47,48,49,50,51,52,53,54,55,56,57,58,59,60,61,62,63,64,65,66,67,68,69,70,71,72,73,74,75,76,77,78,79,80,81,82,83,84,85,86,87,88,89,90,91,92,93,94,95,96,97,98,99,100,101,102,103,104,105,106,107,108,109,110,111,112,113,114,115,116,117,118,119,120,121,122,123,124,125,126,127,128,129,130,131,132,133,134,135,136,137,138,139,140,141,142,143,144,145,146,147,148,149,150,151,152,153,154,155,156,157,158,159,160,161,162,163,164,165,166,167,168,169,170,171,172,173,174,175,176,177,178,179,180,181,182,183,184,185,186,187,188,189,190,191,192,193,194,195,196,197,198,199,200,201,202,203,204,205,206,207,208,209,210,211,212,213,214,215,216,217,218,219,220,221,222,223,224,225,226,227,228,229,230,231,232,233,234,235,236,237,238,239,240,241,242,243,244,245,246,247,248,249,250,251,252,253,254,255,256,257,258,259,260,261,262,263,264,265,266,267,268,269,270,271,272,273,274,275,276,277,278,279,280,281,282,283,284,285,286,287,288,289,290,291,292,293,294,295,296,297,298,299,300,301,302,303,304,305,306,307,308,309,310,311,312,313,314,315,316,317,318,319,320,321,322,323,324,325,326,327,328,329,330,331,332,333,334,335,336,337,338,339,340,341,342,343,344,345,346,347,348,349,350,351,352,353,354,355,356,357,358,359,360,361,362,363,364,365,366,367,368,369,370,371,372,373,374,375,376,377,378,379,380,381,382,383,384,385,386,387,388,389,390,391,392,393,394,395,396,397,398,399,400,401,402,403,404,405,406,407,408,409,410,411,412,413,414,415,416,417,418,419,420,421,422,423,424,425,426,427,428,429,430,431,432,433,434,435,436,437,438,439,440,441,442,443,444,445,446,447,448,449,450,451,452,453,454,455,456,457,458,459,460,461,462,463,464,465,466,467,468,469,470,471,472,473,474,475,476,477,478,479,480,481,482,483,484,485,486,487,488,489,490,491,492,493,494,495,496,497,498,499,500,501,502,503,504,505,506,507,508,509,510,511,512,513,514,515,516,517,518,519,520,521,522,523,524,525,526,527,528,529,530,531,532,533,534,535,536,537,538,539,540,541,542,543,544,545,546,547,548,549,550,551,552,553,554,555,556,557,558,559,560,561,562,563,564,565,566,567,568,569,570,571,572,573,574,575,576,577,578,579,580,581,582,583,584,585,586,587,588,589,590,591,592,593,594,595,596,597,598,599,600,601,602,603,604,605,606,607,608,609,610,611,612,613,614,615,616,617,618,619,620,621,622,623,624,625,626,627,628,629,630,631,632,633,634,635,636,637,638,639,640,641,642,643,644,645,646,647,648,649,650,651,652,653,654,655,656,657,658,659,660,661,662,663,664,665,666,667,668,669,670,671,672,673,674,675,676,677,678,679,680,681,682,683,684,685,686,687,688,689,690,691,692,693,694,695,696,697,698,699,700,701,702,703,704,705,706,707,708,709,710,711,712,713,714,715,716,717,718,719,720,721,722,723,724,725,726,727,728,729,730,731,732,733,734,735,736,737,738,739,740,741,742,743,744,745,746,747,748,749,750,751,752,753,754,755,756,757,758,759,760,761,762,763,764,765,766,767,768,769,770,771,772,773,774,775,776,777,778,779,780,781,782,783,784,785,786,787,788,789,790,791,792,793,794,795,796,797,798,799,800,801,802,803,804,805,806,807,808,809,810,811,812,813,814,815,816,817,818,819,820,821,822,823,824,825,826,827,828,829,830,831,832,833,834,835,836,837,838,839,840,841,842,843,844,845,846,847,848,849,850,851,852,853,854,855,856,857,858,859,860,861,862,863,864,865,866,867,868,869,870,871,872,873,874,875,876,877,878,879,880,881,882,883,884,885,886,887,888,889,890,891,892,893,894,895,896,897,898,899,900,901,902,903,904,905,906,907,908,909,910,911,912,913,914,915,916,917,918,919,920,921,922,923,924,925,926,927,928,929,930,931,932,933,934,935,936,937,938,939,940,941,942,943,944,945,946,947,948,949,950,951,952,953,954,955,956,957,958,959,960,961,962,963,964,965,966,967,968,969,970,971,972,973,974,975,976,977,978,979,980,981,982,983,984,985,986,987,988,989,990,991,992,993,994,995,996,997,998,999,1000,1001,1002,1003,1004,1005,1006,1007,1008,1009,1010,1011,1012,1013,1014,1015,1016,1017,1018,1019,1020,1021,1022,1023
Cc1ccc(S(=O)(=O)NC(=O)Nc2c3c(cc4c2CCC4)CCC3)cc1,-0.43034172,0.40801594,-0.06933693,0.059642393,-0.24517451,-0.10775142,0.04552841,0.62395597,-0.27427757,-0.23435062,-0.5850849,0.22609194,-0.23873672,-0.32504007,0.30205843,0.1821351,0.14639355,-0.20256029,0.2774941,0.1763568,-0.2677092,-0.3306836,0.58660793,0.22687611,0.23704778,-0.17935877,-0.10528253,-0.77909017,-0.1983915,-0.12450867,-0.20877004,0.4010445,0.5363402,0.37509313,-0.12056741,0.8164877,0.29456574,-0.08909814,-0.4118107,-0.49495432,-0.04539785,0.8015279,0.5742204,0.3462927,-0.21549352,0.029434372,0.28971362,-0.30247304,0.11493736,0.32343832,0.08548742,-0.111686535,0.1815351,-0.22113423,-0.49068323,-0.3328731,0.64038384,-0.28953782,0.08519856,0.005147919,0.31684265,0.3446036,0.25590202,0.5424562,-0.23284133,0.7113566,-0.1153087,0.7070202,0.22988166,0.24453996,-1.0363594,0.06712538,-0.37400278,-0.18204778,-1.6379722,-0.06674114,0.5485552,0.12780583,-0.59361774,-0.15191942,-0.2906771,0.54560375,-0.9326818,-0.13678065,-0.3740655,-0.34137282,-0.6001268,-0.39078274,0.0849896,0.06705409,-0.35128686,0.6392298,0.12001272,0.027855484,-0.57611024,-0.9457138,-0.29426235,-1.048437,-0.06508927,0.24786972,-0.2321123,0.16613534,0.06990615,-0.43728805,-0.46561834,-0.00020693266,0.050306402,-0.9888662,0.0403162,0.33698177,-0.12510602,-0.2633404,0.226523,-1.3019638,-0.17720914,-0.5402314,0.27934438,-0.058120273,0.089924015,-0.15597564,0.3972881,-0.977421,-0.06150256,-0.40703437,0.2695305,-0.59864146,0.10163861,-0.68136907,0.75648755,-0.24028665,0.60834926,-0.84072804,0.28822792,-0.4073254,-0.29492226,-0.37415522,0.9223342,0.05831811,-0.031539224,0.113987915,0.7237437,-0.4599227,0.52782655,-0.63225627,0.10591974,0.0005655701,-0.2058378,-0.681104,0.6487398,0.43897507,0.842328,-0.35265315,0.2792808,-0.36131248,-0.14781122,-0.17808937,-0.06405808,-0.7130074,0.8355357,0.14235137,0.076170295,0.29972428,0.09058462,0.43550158,0.18215965,-0.4253272,-0.75401354,0.23951007,0.5851242,0.5280376,0.60968083,-0.6093564,0.2329434,-0.063990414,0.2597433,-0.02733647,0.11763945,0.06470042,-0.19831063,0.06808374,-0.059253197,0.55463547,-0.017452622,0.2582432,0.0878135,-0.04506189,0.75352734,-0.25463274,-0.4283383,0.21489258,0.251396,-0.28140846,0.41805702,0.7040572,-1.0020968,0.77150667,0.65905744,0.43164834,0.12033478,0.20712253,-0.41220224,-0.3230055,0.5582575,0.2050988,0.041480064,0.12719086,-1.0586777,0.055146623,-0.29681388,0.057968497,0.53697824,0.51918435,-0.18119265,-0.41771913,0.17238408,-0.79068494,0.19456777,-0.83182454,0.21904884,0.23039444,0.012012965,-0.07504675,0.35602146,-0.16204064,-0.29164857,-0.394472,0.25135547,0.04874787,-0.090435565,0.5415557,0.105125025,0.51992494,-0.43666738,-0.10468595,0.32874262,0.15967476,0.3133695,0.17510079,0.017017199,0.5186091,0.07007843,-0.032206617,0.52472377,-0.026269715,0.010333519,-0.017093811,-0.025440607,0.4008238,-0.13203108,0.43972966,-0.013735587,1.195177,-0.44963577,0.38642135,0.15095766,0.0052741873,0.5350025,1.1860029,1.3808856,1.1736742,0.92003685,1.2652125,0.8460528,1.5301303,0.96203667,1.4357237,0.57246405,1.4811293,0.8164902,0.7424814,2.0079434,1.1705886,1.1212858,1.0803124,0.97068065,1.0797246,1.5524745,0.6353706,1.4164835,0.9156734,1.5348107,1.070847,0.4778947,0.8424063,0.918281,0.7542779,0.93463814,1.3605752,1.295729,1.4654258,1.1900737,2.031758,1.781804,1.0320321,0.5400881,0.99964064,1.6171448,1.8397084,1.4240931,1.470457,0.9638503,1.6640061,1.7975729,1.438031,0.9583459,1.3694997,0.88289696,1.218715,1.6496527,1.6841842,0.89258146,1.202491,1.5934917,2.3731248,1.6890395,1.2906369,1.1889855,1.1876379,1.1205344,1.8729137,1.427088,2.2817814,1.2645459,1.7537607,1.3209778,1.4532164,0.50695294,1.5332689,1.0281374,1.472039,1.9496316,1.4592648,1.7454259,1.4514637,1.6552182,1.3910469,0.99969584,1.7265984,0.87706614,1.0688058,2.0453997,1.3817003,0.8887299,1.1814685,1.7751793,1.1753591,1.5943185,2.0098538,1.4915377,0.99683213,1.247767,0.68713844,1.117327,0.7660691,1.3158369,1.3289461,1.3752854,1.8868408,1.5284228,1.6442468,1.1374632,0.96744424,1.1849866,1.8636727,1.4381858,1.6771728,1.1513419,1.6523837,1.3866299,1.605802,1.385073,1.2232527,1.5153686,1.1192914,0.80630225,1.2853339,1.6386611,3.7238533,1.5217319,0.95492417,1.4755282,0.6294229,1.5583754,1.2180681,1.8695487,1.2262216,1.2749163,1.2185714,1.2260795,1.2056309,1.0974753,0.94734097,1.8823111,1.3152288,1.6266216,1.193779,1.7647,1.0593467,1.971727,0.82726276,1.3882673,1.0996376,1.8294214,1.2319361,1.7548501,1.3085647,2.0727348,0.76086396,1.6124862,0.95537245,1.6202853,0.9849988,1.4137229,1.0450422,2.0474803,1.2447613,1.6877468,1.2164257,1.3522826,1.2604256,1.41406,1.0816737,1.293302,1.2592536,1.3916777,1.2331934,1.4296554,1.208414,0.75264066,1.354236,1.199623,1.0365058,1.3635113,0.9542159,1.4762039,1.0025271,1.948814,1.4270186,2.1132357,1.5955179,1.0168881,1.4470071,2.1292577,1.4616224,1.3008312,2.4792016,1.5482234,0.92805535,1.4147315,1.5398611,1.0223478,2.4188805,1.7125018,2.0344446,1.0953419,1.1224625,0.4610642,1.1208192,2.1547654,1.1589049,1.3151549,0.9408892,1.1390738,3.053898,0.8063498,0.7844121,1.3096043,1.7009639,3.932229,0.97669685,1.1207513,0.57814574,1.72912,1.0299656,1.4314649,1.4090497,1.4152497,1.4382381,1.56851,0.997248,1.7867886,1.9597539,1.1091068,1.1474782,1.0138958,1.3493356,1.9771107,1.5165157,2.164684,1.406322,1.1934998,1.2298533,0.981129,1.0729198,1.5984644,1.7503737,1.2553247,0.7638156,2.0383344,1.1638958,0.8983999,1.5140388,1.0851142,1.3305056,1.498893,1.3160883,1.2745643,2.157258,1.1538265,1.1446772,0.7348462,1.0180501,-0.05947921,-0.087581664,0.31596774,0.16495776,-0.54330826,-0.16379867,0.22987756,0.15008898,-0.009213709,-0.087514326,-0.12541622,0.18616156,-0.013037642,-0.2924149,-0.17238767,0.49885166,0.039087586,-0.2349951,-0.048170853,0.29729718,0.25907496,-0.1774522,-0.23714001,-0.023160264,0.35389245,-0.15323721,-0.18002498,-0.072933614,-0.38879243,0.20502652,0.0830387,0.07602793,0.55288744,0.12665488,-0.3958285,0.34876293,-0.041816037,0.4848563,0.10970608,-0.34863812,0.4368989,0.1834557,-0.0047448375,0.36310276,0.023728304,-0.039302923,0.18739562,-0.11276777,-0.33730322,0.13212678,-0.08592164,-0.24813014,-0.016483849,-0.049453713,0.17268531,-0.2093323,0.67609084,-0.17402397,-0.1143539,0.12970468,0.30178234,0.10628287,0.08055617,-0.07824851,-0.30491582,0.50531787,0.18463507,0.3372937,-0.36511257,0.523205,-0.7132477,-0.19207913,-0.5977901,0.48787662,-0.77066755,-0.15396208,-0.49492392,-0.075217456,-0.80450034,-0.248299,-0.74811876,-0.33136222,-0.4078061,0.2239581,-0.7501159,-0.7943959,-1.0209371,-0.5590205,-0.5360292,-0.18319291,-0.72984385,-0.1546583,-0.11564354,-0.2562375,-0.20058134,-0.6383963,-0.45029226,-0.2753831,-0.29612872,-0.73807645,-0.59808254,-0.85925657,-0.31020156,-0.5187442,-0.33161634,-0.6396551,-0.34972426,-0.499247,-0.16548194,-1.035492,0.091940165,-0.78356415,-0.39175886,0.34793195,0.44094676,-0.42822254,0.3060306,-0.833047,0.45558897,-0.5831584,0.019657938,-0.96018267,0.5404202,-0.5350745,0.26202193,-0.19283791,0.5311376,-0.23172213,0.8001779,-0.5924725,1.134002,-0.073014505,0.40841118,-0.40077358,0.14181438,-0.097532704,0.59215313,-0.047164727,0.38347712,-0.03594391,0.3859882,-0.59497,0.41453552,0.004660232,0.47678164,0.14631444,0.40609604,0.053183112,0.39463693,-0.32079113,0.29645848,-0.25904584,0.5069096,-0.36964875,0.34258828,0.03988568,0.43465504,-0.45152402,0.5381608,0.22230324,0.36049286,-0.05101711,0.2711616,0.16108823,0.7748775,0.032422043,0.22880873,0.24862729,0.18507165,0.354049,0.0682566,0.8681332,0.04748438,-0.114319295,0.054073885,0.07007092,0.29651546,0.26339447,0.3067117,0.20278814,-0.016281452,0.14473265,0.28548387,-0.2052848,0.018495869,-0.3766342,0.5588975,0.057214458,0.25961387,0.36844373,0.3793191,0.46256584,0.66144097,0.49881592,0.21173513,0.18822189,0.5406841,0.026360454,0.6631182,0.7275479,0.20906802,0.26160225,0.37934732,0.33291703,-0.16779807,-0.02682246,-0.18140712,0.15141737,-0.5334955,0.29810908,0.3414359,0.344122,-0.14299269,-0.086603396,0.32603383,-0.28833282,0.2357382,0.13227671,-0.4287856,-0.16540848,0.17122445,0.085131966,0.16714485,-0.15503958,0.19565089,-0.020787394,-0.27784148,0.00033634086,-0.08014975,0.09371636,0.7349649,0.056171574,-0.21452248,-0.06004969,0.19748965,-0.06473033,0.40330726,0.02008948,0.13684365,0.15499179,-0.090456165,0.18583648,0.4556579,0.020589083,-0.31480345,0.16060317,-0.051734913,0.48759264,-0.22257535,-0.16081591,-0.38409984,0.5974766,-0.3009956,0.42817336,-0.48691487,-0.3995022,0.9299053,0.82784283,1.2900763,1.0014256,1.495394,0.9296922,0.90779305,0.84786314,0.9267611,1.5117134,0.87827015,0.83443236,1.0527626,0.8557395,0.74785835,1.4341487,1.0676147,1.374112,1.0779331,1.5887938,1.9128984,1.4351513,1.2538458,1.184556,1.3022782,0.9550414,1.4902219,1.3560647,1.4098672,1.3303335,1.3262669,1.2107553,1.3278711,1.1688837,1.1039027,1.7257369,1.0298342,1.5238516,0.950144,0.9616837,1.8029411,1.0587204,1.2119375,1.3606414,1.2044487,0.8396508,1.0305628,1.0611765,1.1864358,1.1618088,1.2874993,1.912858,1.3153925,1.7766869,1.5612512,0.98996335,1.8171341,2.1749516,1.2888261,1.7570654,1.5280699,1.0264026,1.2321248,1.3333468,0.6940486,2.0893795,1.4987801,1.4298838,0.7308302,1.9212725,1.1514264,1.8283792,1.2245467,1.719952,1.4509963,1.2120754,1.4382173,1.0338086,0.9900754,1.0762936,0.60886073,1.2060368,1.1490484,1.3196279,1.2139087,1.4068494,1.0325329,0.8354064,1.0084797,0.9217724,1.5850332,1.0557277,1.2287692,0.88373256,1.2659448,0.6390512,1.2111893,0.9585033,1.5777749,0.8220961,1.2074335,0.7303537,0.8514519,1.2249969,1.0762838,1.0615638,0.97145116,1.5103229,1.4970886,0.78249115,1.3530484,1.893414,1.4046197,2.7305443,1.5344188,1.2419871,1.4176818,1.2336165,1.2472737,2.0254061,0.9590393,3.7863889,1.2853428,0.90626204,1.1249202,1.0305803,1.0751616,0.8207286,1.7614363,1.0737743,2.446215,1.2294784,1.1619718,1.9783217,1.3095977,0.8582836,1.5527914,1.5612904,1.2707485,1.20926,1.0877024,0.9028723,1.4334489,1.4855598,1.4732196,1.3871716,1.2542169,1.4733313,1.3995668,1.1639055,1.2170614,0.8758664,1.0970093,1.8071939,1.7719034,1.1278809,1.2470876,0.8739754,1.88768,1.3951875,1.3529865,1.6995854,1.4126796,0.92349833,2.2132695,0.7152847,1.6779642,1.0968775,0.9359097,1.2107786,1.2156057,1.8834311,0.5336759,1.3599938,1.1293972,1.0185394,1.3933089,1.2446758,1.0753785,1.0093259,1.2414324,0.69264376,1.1615872,1.2410665,1.0432667,1.3400034,1.5995378,1.0030193,1.499885,2.7796457,1.5570083,1.2346427,1.3504611,1.2628815,1.0514234,1.4154643,1.8733084,1.3445026,1.5933478,1.3349296,1.2444683,1.1386187,1.5254964,1.1977758,0.7499569,1.180927,1.2108105,1.228568,0.6252946,1.4727373,1.5772308,1.6136988,2.202608,1.4246638,1.7661083,1.1322665,1.5730582,1.2511411,0.60082895,0.8440714,1.7303042,1.126283,0.8963869,1.3288263,1.4794149,2.0416424,0.62804735,1.2061683,0.9134966,0.76889545,1.8005675,1.1598775,1.6727158,1.1200184,0.7074929,0.88588005,0.85697955,0.80312526,1.5713422,1.3547293,1.1618637,0.97130984,1.1818036,1.3086342,2.033626,2.046811,0.8293001,1.8318124,1.234486,0.7484954,0.29952598,1.497075,1.1266465,1.7964562,1.627292,1.0029838
CC(C)(O)c1coc(S(=O)(=O)NC(=O)Nc2c3c(cc4c2CCC4)CCC3)c1,-0.5489147,0.001001657,0.1348525,0.07667063,-0.5072567,-0.22665691,0.21940278,0.5219149,0.18466905,-0.038300425,-0.45615077,0.31287238,-0.13977252,-0.09254591,0.15308204,0.25510764,0.2711322,-0.27403083,0.34464273,0.17525938,-0.23744306,-0.4817007,0.41356796,0.15272935,-0.08195871,-0.116382636,-0.18887074,-0.47828397,0.003303901,-0.3259136,-0.105142914,0.547894,0.15133616,0.028007086,-0.11663391,0.8794011,0.17677513,-0.11811386,-0.3846805,-0.65855396,-0.06704179,0.6849802,0.32493594,0.029533803,-0.09318442,-0.19935443,0.31297207,-0.21497685,-0.074053906,0.5025627,-0.04027734,-0.0400571,-0.22760297,0.07579763,-0.20627385,-0.33334833,0.4510109,-0.43131024,0.07400564,0.0825465,0.40978143,0.26254869,0.2267264,0.52102447,-0.21334507,0.79875195,0.18072768,0.35099077,0.4548069,0.09390009,-0.9063772,0.20158939,-0.38084462,-0.10430644,-1.2844057,0.17419614,0.32466525,0.29018158,-0.43103793,0.056411467,-0.6520065,0.4334386,-0.8279,0.12849967,-0.4139908,-0.48310414,-0.45015886,-0.61734366,0.116044156,0.023147594,-0.0094243055,0.5230658,0.15599455,0.248293,-0.4490711,-1.0134983,-0.12668186,-0.92439616,-0.25520343,0.111947276,-0.32775983,0.08317225,0.028654257,-0.37928522,-0.4496178,-0.22325116,0.3642056,-0.989196,0.26441193,0.18577717,-0.11079829,-0.743348,0.41086915,-1.2601372,-0.071037196,-0.47571993,0.42471778,0.115219675,0.2544481,-0.06536425,0.36758342,-0.9430403,0.05027858,-0.27482074,0.1974784,-0.71887064,0.065382384,-0.6284771,0.8231167,-0.4573135,0.64860296,-0.37222117,0.054829106,-0.028899584,-0.1722237,-0.19753626,0.67420274,-0.014006705,0.35413936,0.1654388,0.6906079,-0.610991,0.46895537,-0.5126381,-0.02267459,0.017170805,-0.27392226,-0.36470026,0.41542047,0.4645637,0.72436655,-0.33023092,0.27624345,-0.65132827,0.1097668,-0.06288841,0.03983412,-0.5701792,0.80262095,0.04797578,0.13837723,-0.06139291,0.07836666,0.19796409,0.13043702,-0.31826246,-0.42074752,0.21295048,0.39981124,0.61806566,0.33001754,-0.6829269,0.22206914,-0.16800158,0.35838,-0.3167367,0.13262886,0.2574876,-0.06572589,-0.028601222,-0.10249057,0.27366856,0.20784633,0.1495837,0.19890542,-0.26987052,0.69348276,-0.18858624,0.09464407,0.22845036,0.044045728,0.23581637,0.31750682,0.6641974,-1.0115411,0.7854539,0.32838297,0.049632616,0.06611147,0.11010142,-0.24707325,-0.7104323,0.6309866,-0.021800047,-0.17226087,0.18538378,-0.59476805,0.17272474,-0.18549123,0.3062695,0.6072658,0.34072012,-0.13878103,-0.55055803,0.17948474,-0.63717765,0.16749978,-0.5836188,-0.010900962,0.22205119,-0.16036257,-0.18339872,0.3093537,-0.08720121,-0.07515087,-0.22590621,0.3834517,0.13420953,0.15805878,0.4059117,0.02827894,0.538028,-0.4700889,-0.29625785,0.21507847,0.057353955,0.262924,-0.061981566,0.22114928,0.6900749,0.21507184,0.1027131,0.41504148,-0.08036653,-0.15382056,0.07133625,0.049621273,0.6152704,-0.16701536,0.21458381,-0.2958024,0.8674569,-0.2972757,0.5233346,0.17897005,-0.27383393,0.43111062,0.99574697,1.4541403,1.1273252,1.8237541,1.6558307,1.2309265,1.5617296,1.5068073,1.5343343,0.86933017,1.7628988,0.75765455,1.0461487,1.95042,1.1361707,1.2871284,0.8445631,1.1420943,1.1195306,1.3205597,0.3656648,1.1716263,0.8422329,1.038568,1.1966127,0.384766,0.9736572,0.753204,0.835688,1.106819,1.5498984,1.4891475,1.3550256,0.9612579,2.0813403,1.4198692,0.93293446,1.4531269,0.954176,1.2160169,1.9740273,1.1779512,1.5214142,0.83657485,1.0008671,1.4087409,1.5717152,0.79783815,1.8137665,0.7406366,1.71339,1.675585,1.5082704,0.77375084,1.0573596,1.6148342,0.9800171,1.6190972,1.1419188,1.3672456,0.9055741,1.59748,1.9292619,1.2405136,2.23848,1.7423536,2.2221048,1.4136713,1.5029124,0.9768704,1.587316,0.8211616,1.5604631,1.8077313,1.6090186,1.7181576,1.5185665,1.5210855,1.4157912,1.206805,1.5223377,0.516566,1.7550964,2.2090354,1.2141117,1.5948946,1.202573,1.8583938,1.082726,1.550954,1.8147422,1.6771239,1.3589122,1.3107347,0.8867766,1.1286448,1.0434382,1.2352244,1.5306852,1.1771721,1.9277202,1.3986995,1.6256192,1.0090319,0.94330716,1.6927844,1.7534746,1.5253651,2.1020017,1.1921301,1.1665542,1.7376679,1.5683786,1.4932266,1.2707365,1.874831,1.2760475,1.1765771,1.2018046,1.6453388,3.737482,1.3828548,1.1605301,1.6728,0.9463149,1.6098776,1.2083782,1.7129956,1.2664839,1.6550298,1.7834617,1.4012189,1.338807,1.0554115,0.8855407,1.5989388,1.2558483,1.7873243,1.46947,1.7196965,1.2413095,1.9372942,1.637296,1.2101414,1.1760925,1.786601,1.3460096,1.3873675,1.4142636,2.0347805,0.7243733,1.5955667,0.9627943,1.7313612,0.9060777,1.4464225,1.3402694,2.054994,1.3669691,1.7959259,1.0850589,1.4700553,1.2864687,1.507569,1.0720189,1.402968,1.1270719,1.2741119,1.4661399,1.3375849,1.1565183,0.72026,1.131532,1.5774387,1.0125365,1.340535,1.4398988,1.4115214,0.99568474,1.9410033,1.339015,1.9784049,1.5769109,1.3385351,0.874618,1.5713766,1.6304705,1.4776497,2.6264505,1.6696594,1.1923107,1.4309757,1.3257895,1.0779843,2.370571,1.8112426,2.0040245,1.1896044,1.4673929,1.4206562,1.1072917,2.2296338,1.0626287,0.97550976,1.8300359,1.3963294,2.8828285,0.87559867,1.6683489,1.4751911,2.0399227,3.9043317,1.0981052,1.2957867,1.2465816,1.7870852,1.3412124,1.4772763,1.1552815,1.4149408,1.2930479,1.4994932,1.5137078,1.8415884,1.8134302,1.4470773,1.3083001,1.0316836,1.1450566,2.3571908,1.588345,2.1831853,1.6264706,1.2588905,1.1847281,1.0168607,0.8502715,1.7194247,1.6926788,1.5004641,1.1085811,2.1594281,1.0932158,0.7098685,1.1951927,1.0837,1.5948486,1.4829476,1.1492854,1.2080134,1.8108466,1.2047832,1.8147364,0.80396825,1.177199,-0.012303984,-0.09116406,0.22618723,0.1341825,-0.5542839,-0.10886109,0.15946095,0.16731459,-0.06605246,-0.0039862394,-0.065870166,0.20395277,-0.075739324,-0.24555746,-0.14098434,0.44868284,0.06758393,-0.09043215,-0.049204096,0.15557891,0.27423596,-0.17991449,-0.2779856,0.011522074,0.33099058,-0.16352983,-0.15663277,-0.08169539,-0.36009744,0.17669976,0.01943333,0.1103,0.56456494,0.09357616,-0.3217301,0.3809414,-0.05286577,0.27048475,0.1050717,-0.3723979,0.3360738,0.26334697,-0.10322303,0.25915313,-0.032715183,0.04908799,0.20046428,-0.14698324,-0.36979276,0.20108914,-0.14740454,-0.0090654,-0.1768331,-0.026282147,0.13965178,-0.2121637,0.5004662,-0.29030824,-0.25420722,-0.0034597327,0.2993487,0.10000115,0.242052,-0.087728746,-0.3477189,0.42268777,0.22822112,0.290576,-0.261792,0.46089107,-0.64968586,0.0761657,-0.4970089,0.49236888,-0.7339741,-0.005696056,-0.38363063,-0.038038295,-0.7384782,-0.19607553,-0.6332293,-0.23200123,-0.45937937,0.32727927,-0.6255716,-0.7061796,-1.0446931,-0.37683013,-0.5625848,-0.06746694,-0.6834249,-0.10763056,-0.08484501,-0.20479988,-0.16987678,-0.5265675,-0.5045855,-0.27353418,-0.41185164,-0.70785254,-0.5031275,-0.6361386,-0.5052227,-0.5092307,-0.24376133,-0.7082185,-0.3289071,-0.52323985,-0.20056091,-1.0105689,-0.0058761323,-0.8666047,-0.29444447,0.23926517,0.36813688,-0.47400793,0.39990637,-0.7251316,0.44541276,-0.5368831,-0.08124089,-0.96067417,0.44389972,-0.59793925,0.33210456,-0.22350067,0.59252775,-0.29269567,0.7482113,-0.5513305,1.2172123,0.057069555,0.44051114,-0.368076,0.16740791,-0.1356867,0.54310876,-0.18033315,0.36585996,-0.013909175,0.41565052,-0.5900976,0.45466456,0.013071022,0.5288008,-0.03478309,0.36634758,0.03173699,0.3501902,-0.29737774,0.35623437,-0.11188099,0.53741854,-0.2572735,0.31176385,0.0059753587,0.5045533,-0.43252277,0.44311443,0.32358846,0.38677496,-0.10328803,0.18300024,0.15116316,0.78969586,-0.053591035,0.1963546,0.24841626,0.25083148,0.40435046,0.07578322,0.71528804,0.08019088,-0.16063344,0.011184255,0.06766973,0.25469488,0.25693637,0.3302435,0.26249447,-0.08529515,0.17525189,0.28265488,-0.28020185,0.02220227,-0.38782915,0.4531137,0.1977536,0.31451455,0.37209126,0.36324328,0.32867825,0.6458755,0.58185405,0.094249316,0.18227409,0.45135924,0.053226255,0.63374513,0.6366438,0.22704783,0.1159378,0.22957551,0.234379,-0.11369578,-0.13767393,-0.14792806,0.22033845,-0.51921123,0.4008024,0.2337826,0.47881404,-0.21108808,0.0066434373,0.20089486,-0.14601171,0.07519018,0.17537461,-0.30943602,-0.12373026,0.07737442,0.11730957,0.22088656,-0.18355954,0.22694917,0.00887707,-0.15647464,0.09938698,-0.06686377,0.10474366,0.66600347,0.080654725,-0.39369202,-0.035742726,0.19609398,-0.031568278,0.33593112,0.10458541,0.26406354,0.13545604,-0.112786196,0.18865635,0.542361,-0.054463606,-0.34317636,0.01802225,-0.028631533,0.53393227,-0.244107,-0.09574536,-0.5338191,0.49188018,-0.1063267,0.43788704,-0.5344666,-0.37481308,0.9898226,0.7301961,0.9339626,1.0077046,1.3676845,0.9647489,1.0698804,0.8129756,1.018191,1.5589719,0.9994048,0.8398268,0.98428226,0.9314585,0.9807067,1.3049976,1.0274059,1.3745141,1.3490992,1.4036028,1.7337459,1.2959031,1.1847678,1.3430442,1.2045832,0.8765966,1.1343364,0.9812639,1.5192049,1.5585716,1.0742848,1.2520964,1.2975157,1.423872,1.0658873,1.4206282,1.2083943,1.4062778,1.0062456,1.0663193,1.8491266,1.230027,1.2457243,1.5110477,0.98895353,0.87992895,1.3484795,1.0438683,1.2880172,1.5224338,0.8908033,1.4906163,1.3246315,1.7583691,1.3023155,1.0502987,1.5084759,1.3291103,1.3206657,1.8446665,1.4986477,1.4519494,1.3126557,1.375045,0.87766963,1.9578657,1.5386857,1.4620768,1.5860721,1.9415747,1.020222,1.8303477,1.316822,1.7959538,1.3273495,1.12841,1.5506339,1.2082902,1.2256013,1.271472,0.93928057,1.3248994,1.1809089,1.5564606,1.4083036,1.3279183,1.0818661,0.9880087,1.0381197,1.3710635,1.5600725,1.1696473,1.0799642,0.85485095,1.4195762,0.85773426,1.2765176,0.9251609,1.331071,0.8508477,1.2200669,0.70069695,1.0903189,1.4140218,1.0814856,1.3766613,1.0171113,1.321118,1.4379804,0.9056889,1.4101204,1.8276612,1.3933508,3.1013393,1.3849897,1.2121416,1.546767,1.5053384,1.2771045,2.0303206,0.83323383,3.8590536,1.2203559,1.2229494,1.072248,1.1491867,1.1132053,0.7014957,1.9962826,1.3060734,2.70019,1.3661245,1.2182591,1.9489369,1.3525144,1.0103709,1.5788997,1.618575,1.3426423,1.1560642,1.1517582,1.3417093,1.4709442,1.5245315,1.4703895,1.1611758,1.2286327,1.5247816,1.2348572,1.4059865,1.4094819,1.3308225,1.2237282,1.7740796,2.073383,1.0662254,1.3823482,0.8533665,1.8673452,1.609528,1.4379339,1.5518332,1.5140806,0.9138158,2.316658,1.1902341,1.6021543,1.1212426,1.036509,1.2344463,1.2906791,1.7391347,0.60436994,1.4731743,1.2335832,1.1287746,1.1591855,1.2612131,1.1309663,1.0936604,1.1641083,0.86873496,1.6601354,1.5501046,1.1322998,1.3077273,1.253698,1.0498534,1.5019561,2.8547904,1.6810002,1.0366001,1.4546746,1.3408443,1.0319562,1.3885958,1.8421055,1.3370082,1.5886474,1.3827543,1.268183,1.0239068,1.1144357,1.2415601,0.8253184,1.0944469,1.259761,1.3649702,0.67009836,1.7320873,1.6446427,1.6586826,1.9672625,1.4229878,1.8055162,1.1840602,1.381314,1.2821699,0.9090499,1.0875586,1.8951074,1.2756248,1.522072,1.4045862,1.5662736,1.9565914,1.7577474,1.3540012,0.878096,0.79434395,1.7561208,1.2866671,1.5812211,1.0904673,1.0721062,1.211823,0.8414502,1.6084265,1.6108164,1.3004594,1.2305782,0.84865075,1.2397716,1.3906659,2.135107,1.3010774,0.8157968,1.3937545,0.8307117,0.87774277,0.1168784,1.0407665,1.3192644,1.7323484,1.635941,1.0101628
N#CN=S(=O)(NC(=O)Nc1c2c(cc3c1CCC3)CCC2)c1ccc(C#N)cc1,-0.5320872,0.5212861,-0.0848462,-0.21613553,-0.26904914,0.14678405,0.14266665,0.78828645,-0.38229066,-0.19977401,-0.4437412,0.07588867,-0.26025143,-0.25778985,0.27148405,-0.013334286,-0.10107124,-0.14779243,0.21377485,0.11019205,-0.28627813,-0.15415062,0.58469826,0.24032971,0.2983128,-0.14953639,0.19104262,-0.69590825,-0.53761774,-0.17914955,-0.018154917,0.34337586,0.34633377,0.21386257,-0.022180134,0.70817584,0.15258536,0.03398039,-0.52943134,-0.4270136,-0.3034477,0.52449745,0.32659802,0.49610892,-0.111523,-0.1889925,-0.027179966,-0.22741464,0.28004652,0.2374486,0.048859768,-0.26861414,0.20095816,-0.15294757,-0.5324641,-0.3344959,0.3773886,-0.3773889,-0.020330096,-0.28785777,0.3589272,0.28731963,0.4003896,0.28567207,-0.26704314,0.61578715,-0.19926222,0.6532142,0.15355222,0.21368684,-0.9159469,-0.04209645,-0.4371235,-0.119768165,-1.0557412,0.18683422,0.36287847,-0.109596424,-0.6962304,-0.045405466,-0.2624358,0.5651416,-0.6558113,-0.2307913,-0.40967712,-0.54877955,-0.5200938,-0.14316829,0.039394114,0.22014739,-0.5020722,0.7063483,0.09616064,-0.094734654,-0.52600217,-0.68829155,-0.609493,-1.1336796,-0.04815694,-0.0057872613,-0.31380975,0.08284935,-0.23251241,-0.40979007,-0.57419246,-0.23472026,-0.122596875,-0.69308907,0.17797294,-0.13438354,-0.019178232,-0.38255435,0.31530145,-1.3713541,0.22390023,-0.4425534,0.3852276,-0.20113462,0.21056372,-0.12506868,0.34438518,-0.7957581,-0.1478902,-0.44822326,0.4731013,-0.4475535,0.22956389,-0.4171338,0.47213545,-0.2007651,0.8551419,-0.49013606,0.28968027,-0.605422,-0.17396758,-0.4934316,1.1178623,-0.053561352,-0.29286435,0.12486817,0.46252057,-0.46447727,0.37006614,-0.6632456,-0.14630353,0.10503265,-0.06629709,-0.6633331,0.60435444,0.33893433,0.71399885,-0.1770548,0.23387592,-0.3433095,-0.19760233,-0.27896836,-0.10539772,-0.585275,1.0139091,0.35974818,0.2466501,0.35987276,0.15344103,0.33275738,0.3994926,-0.5408267,-0.576436,0.031200172,0.43403143,0.51809543,0.46889734,-0.2592545,0.16808711,0.09838312,0.32639337,-0.19255607,0.29207703,0.07120725,-0.39300215,0.029732304,0.06996591,0.687739,0.07935883,0.11486924,-0.11085267,-0.16607577,0.5374282,0.17722103,-0.36064,0.27761534,0.4450459,-0.32852563,0.46802282,0.6745547,-0.71284497,0.86482495,0.800772,0.3568734,-0.058762018,0.10066307,-0.23593202,-0.5174044,0.2153984,0.25110838,-0.31021285,0.3740365,-0.8929195,0.21785535,-0.39048877,0.3432166,0.43884832,0.5896867,-0.26560313,0.19203076,0.09616467,-0.6726837,0.32641792,-0.67873347,0.34429833,0.33382866,0.1162087,-0.13590086,0.44673356,-0.22611114,-0.19854866,-0.3227191,0.05417616,-0.05375115,0.09054134,0.7668317,0.34652677,0.5758467,-0.078705736,-0.2865092,0.23594572,0.15131247,0.3270323,0.3574181,-0.046008043,0.38952684,0.06649586,0.03843207,0.3626337,0.0040682983,0.029155757,-0.2059239,-0.16811797,0.36324665,-0.07961244,0.41579288,-0.078340106,0.7770318,-0.21630923,0.5474977,0.07504637,0.2845358,0.6727567,1.5059191,1.2269163,1.4151347,1.2466885,1.3741779,1.4772681,1.869226,0.90255845,1.3393626,0.72802645,1.7577653,0.88528115,1.2056943,1.5461657,0.99262464,1.4086245,0.94902,0.9600388,1.0850421,1.3869582,0.6806206,1.3534501,0.9189118,1.4939979,1.0926516,0.93647647,0.8495459,0.78528005,0.7153224,1.069773,1.373363,1.0149266,1.5638202,1.6142722,2.0444977,1.6218873,0.80241656,0.66228515,1.3622761,1.6053423,1.4536052,1.1242816,1.6580161,1.039372,0.9184318,1.8773676,1.4767085,1.1939735,1.4044567,0.8112931,1.729883,2.0983424,1.664507,1.0101414,1.1047555,1.7023156,2.7352118,1.9655164,1.3177841,1.6541361,1.1662403,1.3060044,1.747031,1.5218613,1.99884,1.0015264,2.0455785,1.2238768,1.6046886,0.70235425,1.3301352,1.0714724,1.5842067,2.307356,1.7704709,1.990079,1.4353962,1.7482362,1.452142,0.850079,1.7051837,1.2422556,1.1691707,1.8067697,1.4841875,1.2428907,1.4293602,1.8225615,1.5145488,1.3319554,1.8035624,1.4311882,0.80989623,1.4454308,1.1215703,1.0346042,0.45437723,1.1936753,1.1046556,1.3728474,2.1760778,1.5494275,1.8594813,0.98501074,1.3933644,1.2062103,2.088355,1.8412976,1.4982779,1.1610322,1.9601169,1.6839225,1.6032956,1.3646184,1.7810677,1.937563,1.512875,1.2231936,1.2578077,2.0797725,3.7979243,1.4069092,1.1991757,1.3911333,1.3886228,1.3847433,1.4197086,1.2431083,1.1235646,1.7456329,1.4438672,1.7385782,1.0070453,1.0568446,1.1449722,2.1519074,1.4452589,1.8926786,1.8784012,1.3795564,0.9685043,1.9009638,0.9785412,1.0605476,1.1604106,1.8338404,1.0268329,1.8447182,1.286701,1.8851311,1.118135,1.1285344,1.339384,1.519775,0.9602786,1.10223,1.0114806,2.1268435,1.2276158,1.4858438,1.0820972,1.9530696,1.1791673,1.4334877,1.1018885,1.4133779,1.3391002,1.4308347,1.5340842,1.2055565,1.4410532,0.7836165,1.3634559,1.4362545,1.2911959,1.1654984,1.3198537,0.927071,1.2721597,1.807864,2.3280087,1.7875314,1.6815724,1.0309861,1.0933454,1.6671184,1.7378833,1.4429823,2.6890275,1.5473614,1.0683869,1.283526,1.4073021,1.7394687,2.3047593,2.1460643,1.8699046,1.1709725,1.2726569,0.96240544,1.2179074,1.8560017,1.3590457,0.6877469,1.3920879,1.0774007,2.046505,0.7518009,1.5663494,1.5447545,2.1960301,3.9155507,1.1785885,1.1330993,1.1488272,1.8810571,1.1190279,1.3816633,1.1766312,1.4902847,0.939064,1.9844648,1.0163876,1.8594323,1.9403226,1.0935405,1.1176636,1.0278287,1.5690763,1.8087204,1.8942329,2.0065284,1.3976544,1.6059916,1.3275447,1.086908,1.2359958,1.4434326,1.3787578,1.3524019,1.3854055,1.8221157,1.1405993,0.9280512,1.3077427,1.1616235,1.5044757,1.8219335,1.2063392,1.5181214,1.5883452,1.8004419,1.473002,0.91752464,1.9071484,-0.117905304,-0.028736657,0.2360705,0.14236875,-0.4826338,-0.08267319,0.07212836,0.1708328,0.021201072,0.058751304,-0.07457969,0.13905847,-0.074334204,-0.29251057,-0.18884155,0.49755198,0.011377832,-0.10914387,-0.00998155,0.14795333,0.23300284,-0.25588617,-0.23308189,-0.019249577,0.19394536,-0.09726379,0.05595966,-0.15335338,-0.5331108,0.09279441,0.11849474,0.14170681,0.62019986,0.0054688626,-0.46005875,0.26549393,-0.18648975,0.30890617,0.069807395,-0.38687918,0.2563227,0.25350854,-0.09555912,0.44200778,0.11925166,0.018401109,0.2224939,-0.08120409,-0.36054432,0.10225677,-0.054297674,-0.23672752,-0.031319275,0.050844587,0.05745774,-0.27655044,0.49085057,-0.22245109,-0.22339535,-0.1429866,0.27224955,0.106006205,0.04521452,-0.11119136,-0.25908616,0.6164587,0.09045615,0.30213228,-0.15191147,0.56624365,-0.5829995,-0.08778852,-0.4863346,0.53729844,-0.66954845,-0.13406356,-0.5400618,0.040110692,-0.6208062,-0.20885606,-0.6724402,-0.10853107,-0.33557105,0.11928172,-0.7353594,-0.5762401,-1.0037069,-0.45736396,-0.5331995,-0.31560594,-0.90888435,-0.096865274,-0.0808022,-0.20166409,-0.30328846,-0.681687,-0.42852604,-0.35315073,-0.24656256,-0.7824757,-0.5778426,-0.7800219,-0.4878007,-0.3255958,-0.38805434,-0.7023946,-0.30894044,-0.4307962,-0.10812214,-1.1453068,0.052933693,-0.838833,-0.39736575,0.30107227,0.51489973,-0.4419706,0.2008988,-0.82332397,0.39159262,-0.6221024,0.0012460409,-0.88650304,0.45188475,-0.5163578,0.2907825,-0.13650753,0.5207785,-0.07217795,0.81768125,-0.6353879,1.1796011,-0.015946874,0.5489365,-0.28111276,0.19182213,-0.121388614,0.8210565,0.026440877,0.33671844,-0.032336973,0.17976509,-0.7376614,0.43890813,-0.011733465,0.5872525,0.031092197,0.41045436,0.053795017,0.3990435,-0.40969053,0.29139653,-0.14050768,0.5699785,-0.17267568,0.3723986,0.09901163,0.38542557,-0.48801512,0.57688993,0.29184848,0.38876352,0.05413109,0.13073975,0.06473739,0.7797558,0.15211649,0.27668756,0.16657417,0.16204576,0.26962003,0.08653629,0.7710309,-0.081725396,-0.27649477,0.08412866,0.1044212,0.28516528,0.26765203,0.28712043,0.23626965,0.055414345,0.21562812,0.3507514,-0.33543742,-0.037724923,-0.28883758,0.5878632,0.22595835,0.13578525,0.321438,0.2527931,0.44193375,0.63439596,0.6157814,0.1153154,0.17426006,0.49751154,0.11938413,0.6215846,0.63547313,0.10939439,0.22978628,0.11625819,0.34887978,-0.17515835,-0.022036297,-0.19023965,0.2192814,-0.47796226,0.37878692,0.15479377,0.3892595,-0.115311645,0.039737005,0.36192873,-0.31530914,0.18723242,0.23128621,-0.33278617,-0.11267161,0.05270513,0.1540141,0.07378662,-0.11498143,0.17881209,-0.00904072,-0.25676188,0.02126155,-0.03225304,0.12700132,0.688467,0.004609543,-0.14562593,-0.009394662,0.13070197,0.014093013,0.37753326,-0.12384607,0.09847737,0.076597,-0.11799916,0.2754358,0.40918642,-0.063690014,-0.21849623,0.18413123,0.006768094,0.4034646,-0.010392171,-0.18666561,-0.32082823,0.5201458,-0.22287437,0.5157377,-0.4151386,-0.552394,0.8886694,0.8357771,0.9862597,0.8403691,0.58385444,1.0746473,1.261953,0.9985084,0.94326484,1.653482,1.2230325,0.7180152,1.5190529,0.94715106,1.2342966,1.3179568,0.98101974,1.4063659,1.2565457,1.1724983,1.7296343,1.5090338,1.0377482,1.0473937,0.9848282,1.3486971,1.8840797,1.1872529,1.044257,1.326899,1.141264,1.5307171,1.5123712,1.2108856,1.2384309,1.3465418,0.8401881,1.3752427,1.0373954,1.1324348,1.6626161,1.3788775,1.162522,1.420989,1.1889029,0.94653064,1.554568,0.94975996,1.0187479,1.121684,1.3327463,1.8272758,1.3072314,1.6486045,1.524822,0.9933097,1.3870584,2.3674185,1.4339257,1.46594,1.5602578,1.2341595,1.4632348,1.2446915,1.0668356,2.0760071,1.3356259,1.5495789,1.0454497,2.0582283,1.225737,1.6642331,1.1743325,1.7094964,1.7658329,1.0903805,1.2364066,1.3114024,1.5989528,1.274906,0.7517659,1.3657453,1.2490197,1.3708025,1.3123329,1.5394721,1.0779282,1.1130233,1.1154995,0.69970214,1.4443339,1.236415,1.1603098,1.0214977,1.1373999,0.6917721,1.4166353,1.1078762,1.7770607,0.6794702,1.1628928,0.6430208,1.0627335,1.2037483,1.2197454,1.1549006,2.0449324,1.8536177,1.6959144,0.96772647,1.2935925,2.1602566,1.1841457,2.9184625,1.546372,1.2933747,1.3328689,1.2954081,1.2583323,1.625547,1.1229844,3.7742915,1.416458,0.7681163,1.1034261,1.3946369,1.06009,1.4326768,1.6314489,1.019438,2.2171056,1.1064696,1.307063,2.061659,1.3100789,0.8384748,1.7559978,1.4145074,1.578055,1.4457603,0.81301993,0.73835456,1.5482669,1.1737484,1.5398597,1.1018767,1.1781136,1.2406676,1.3091475,0.7261258,1.0411242,1.3420438,1.2491953,1.7849323,1.6032034,1.2010934,1.1522909,1.0016958,1.7844802,1.2810556,1.2628806,1.6277674,1.3394531,0.88796914,2.091786,1.4801011,1.8228769,1.0061435,0.93338925,1.281065,1.2031968,1.8959571,0.46858618,1.0589607,0.7190184,1.0995772,1.3090223,1.2612047,1.0131948,1.0509423,1.3522862,0.8225592,2.149528,1.2230624,0.8989693,1.1605209,2.114978,0.93428636,1.2350117,2.5430694,1.6634303,1.4692053,1.357574,1.4730623,1.8953494,1.267866,1.7826247,1.5314164,1.5266075,1.2550523,1.1723852,1.5509567,0.93590385,1.0722197,0.8796971,0.92255497,1.2216434,1.5262188,0.7662662,1.563602,1.5672435,1.5467952,2.4426115,1.3802519,1.7020854,0.85119945,1.5587233,1.8471799,0.6235846,1.1100992,1.730419,1.4107645,0.8431825,1.1840698,1.461893,1.9663861,1.1674825,1.332013,0.787807,0.7752809,1.9108465,1.0457677,1.627078,1.0802597,1.1401678,0.94315624,0.8456591,1.031865,1.3889859,1.30586,1.4419389,0.90881056,0.99044436,1.3190204,1.6925336,2.331285,1.0760262,1.358064,1.2695253,0.8776161,0.63408524,1.5109737,1.0815377,1.8358113,1.3803086,0.8745003
Cc1ccc(S(=O)(=O)N/C(=N\C#N)Nc2c3c(cc4c2CCC4)CCC3)cc1,-0.43379417,0.24574901,-0.07064535,-0.109852895,-0.2823865,-0.061541133,0.19959234,0.7045713,-0.31991938,-0.33181295,-0.5374368,0.19019158,-0.12110091,-0.40019485,0.16746932,0.067143895,0.0110381795,-0.14365615,0.2913584,0.09075459,-0.30271348,-0.20768185,0.6696236,0.14253667,0.13814138,-0.1527685,-0.055820968,-0.69300187,-0.2676885,-0.14791468,-0.03140892,0.4248861,0.33172297,0.18735902,0.012760555,0.70293105,0.2676456,-0.07774287,-0.44938567,-0.48375595,-0.035048526,0.51777923,0.49586633,0.39182273,-0.12686735,-0.0627209,0.33825788,-0.3043117,0.20892702,0.4825221,-0.094270065,-0.100001365,0.25162667,-0.21353933,-0.45731947,-0.30859447,0.4132394,-0.41924867,0.02004104,0.17637154,0.15751947,0.30028427,0.47006193,0.3950297,-0.21097548,0.5907907,-0.07126587,0.6796941,0.2719335,0.23354481,-1.0193136,0.08513225,-0.20752408,-0.19445659,-1.3802993,-0.023241865,0.38902703,0.07866617,-0.5538975,-0.17100945,-0.22844167,0.463469,-0.72293466,-0.078226775,-0.3435759,-0.44470114,-0.6257583,-0.27051324,0.16115624,0.2914218,-0.46569067,0.5457605,0.13588487,0.068876095,-0.46585956,-0.8540529,-0.45034724,-1.1305159,0.004969142,0.15051138,-0.32658923,0.26139185,-0.096019335,-0.35531253,-0.38537273,-0.17308474,-0.027663993,-0.8142995,0.1907236,0.2511039,0.03849271,-0.47812963,0.4266123,-1.1978481,0.038091507,-0.49768728,0.13019449,-0.067735426,-0.09555618,-0.123276606,0.20735852,-0.99755293,-0.067120984,-0.413423,0.42304024,-0.6457924,0.120031975,-0.49402595,0.60465205,-0.20381886,0.7249728,-0.69568986,0.24920033,-0.45766234,-0.22934835,-0.3160552,0.82870674,-0.012857716,-0.104792766,0.080794886,0.64069295,-0.51504225,0.5331441,-0.68246305,0.05912039,-0.21745946,-0.10993912,-0.680009,0.6931973,0.38770562,0.80488276,-0.30533174,0.2841571,-0.5317552,-0.035663642,-0.22052304,-0.012279729,-0.46507716,0.9994332,0.301166,0.24588643,0.11633587,0.19385424,0.31922895,0.21932341,-0.55743945,-0.567899,0.19206077,0.39734182,0.52108866,0.7232342,-0.7142323,0.09247398,-0.024452794,0.1342415,-0.054126848,0.055985987,0.054248728,-0.2611339,-0.030300902,0.0643987,0.67844373,0.2746935,0.28600338,0.21960051,0.016900755,0.6584153,-0.28735515,-0.30007583,0.3734428,0.17145774,-0.14004053,0.3905557,0.8019357,-0.94252187,0.7555312,0.7227874,0.4590433,0.09438318,0.20453528,-0.3994208,-0.38859093,0.37748733,0.16585264,-0.15616146,0.14133483,-0.99187875,-0.040154703,-0.34290302,0.236242,0.38297653,0.46273357,-0.15371758,-0.3986385,0.2708164,-0.89234746,0.2555302,-0.7787287,0.13398382,0.15684132,-0.22131415,-0.0074180327,0.49719873,-0.09557057,-0.2765993,-0.34348172,0.29158792,0.13757487,-0.15978913,0.49961656,0.17910983,0.49381632,-0.30948597,-0.103239425,0.25890502,0.24041338,0.47022107,0.30980512,0.027959682,0.517276,0.11619042,-0.110986486,0.3670369,0.050614785,-0.22639869,0.013433689,0.07828447,0.4025554,-0.071385466,0.4180455,0.1710996,1.008122,-0.3075451,0.35483965,0.06666649,-0.0988497,0.7038252,1.1616004,1.2258768,1.1374636,1.1189919,1.0249633,1.1017156,1.5483131,1.0103564,0.76814014,0.6124268,1.6037067,0.98541415,0.86958617,2.014844,1.3725352,1.0093828,0.93689454,1.0708517,1.1345416,1.5224196,1.0831857,1.5218481,0.89810485,1.2473259,1.1789503,0.8950307,1.4181658,0.8142951,0.93233615,0.77332836,1.445204,0.8958095,1.3609271,1.0179555,1.974028,1.7451273,0.9284942,0.7475747,1.1016495,1.6751171,1.5992215,1.4986112,1.7798431,0.96351063,1.6852299,1.8728614,1.2448224,1.4214123,1.5761153,0.76817894,1.1814915,1.5725127,1.7000573,0.82367224,1.0314115,1.5585668,2.3297734,1.6924075,1.2804424,1.0596795,1.0715928,1.2327675,1.8433324,1.5646526,2.0171435,1.1735271,1.9826072,1.4030759,1.5361314,0.72013444,1.7171496,1.1425073,1.1257637,2.0491436,1.4314926,1.664024,1.4040542,1.8087621,1.2112007,0.98422015,1.6087737,0.96125996,1.0349296,1.828322,1.2128154,0.9472776,1.2862322,1.8480409,1.2975383,1.6538559,1.7907277,1.5504329,1.0472174,1.0273972,0.878716,1.2036626,0.797809,1.4124855,1.2184297,1.4049404,1.8807204,1.1708264,1.6666242,0.92072517,1.0975369,1.2128164,1.1526862,1.6853232,1.5529147,1.7957575,1.7252592,1.5359764,1.5710032,1.723292,1.468425,1.4401485,1.4566331,0.98326737,1.0498232,1.6031965,3.6986852,1.5810727,1.1935972,1.5767976,1.7487261,1.0464133,1.2594994,1.7490814,1.1409372,1.592469,1.2582504,1.191513,1.9447683,1.0369122,0.8648987,1.8319706,1.3284299,1.5182787,1.6350251,1.5066592,1.0994325,1.996026,1.0776091,1.8152533,0.98147017,1.5627278,1.2860816,1.6987596,1.2355046,1.9646615,1.5751123,1.318917,1.6468965,1.6978099,1.0137465,1.3533567,1.132735,2.13068,1.424174,1.6022849,1.1624439,1.3590527,1.3130372,1.4404515,1.0107396,1.2558427,1.2117653,1.4338331,1.3788803,1.6726735,1.0412382,0.7169209,1.2699455,1.2074306,1.005913,1.3088771,1.9494877,1.1900618,0.87545854,1.9562081,1.5609735,2.235382,1.6334867,1.2306356,1.2420564,2.2299054,1.6020627,1.4023194,2.0242813,1.2443699,1.7383994,1.2222093,1.5815156,0.87432194,1.894135,1.9233866,2.0973475,1.1862493,1.4505669,0.58061635,0.98464775,2.03664,1.0498616,1.2284324,1.7570924,1.1750766,3.0559735,0.7961414,1.2466882,1.4010464,1.7555796,3.9511807,0.91402966,1.1356696,1.2521044,2.0037217,1.291844,1.4624404,1.2352895,1.2808484,1.2978249,1.8827608,1.1089464,1.7511226,1.8186904,1.3343627,1.276164,1.2944051,1.3519866,1.5648562,1.4751691,1.8905911,1.4568146,1.1935971,1.3704116,1.4812031,1.1374401,1.5657969,1.5207022,1.3518978,0.77957135,1.4575275,1.2505805,0.8850161,1.501848,1.1111261,1.288134,1.7179911,1.3347785,1.4535167,1.894963,2.1563807,1.1728194,0.7924153,1.1810052,-0.13380344,-0.08828724,0.24841218,0.15392628,-0.5183907,-0.12134497,0.13694479,0.18503861,-0.06376084,0.026911914,-0.0006438146,0.15523094,-0.058617517,-0.22461328,-0.20481247,0.39263555,0.05252186,-0.10312964,-0.113847785,0.21046896,0.29149157,-0.19700809,-0.18301442,0.030066755,0.2990842,-0.17127977,-0.025803467,-0.17589188,-0.48093748,0.14104757,0.14254233,0.091233954,0.57438743,0.03430645,-0.4637275,0.24608068,-0.13523617,0.35323137,0.09872858,-0.3701427,0.31319377,0.1782311,-0.0989411,0.39872652,0.10905163,-0.03036294,0.22297928,-0.059152734,-0.3308064,0.11975127,-0.08955498,-0.21062937,-0.11372844,-0.05431545,0.052729294,-0.2833578,0.49018988,-0.18828735,-0.17733338,0.0069184136,0.32868844,0.112084664,0.09628854,-0.12005893,-0.26828247,0.5565967,0.20189801,0.32309848,-0.29767334,0.51225394,-0.63919985,-0.008847704,-0.50823253,0.54347193,-0.62684476,-0.18484357,-0.5153097,0.018892733,-0.7175246,-0.24038184,-0.64466137,-0.2313883,-0.3432238,0.27248925,-0.69880927,-0.69700795,-0.980815,-0.37248573,-0.49669546,-0.18209869,-0.8635227,-0.10186599,-0.11775809,-0.21832134,-0.24797037,-0.6691444,-0.47197405,-0.36273512,-0.2915386,-0.7715395,-0.5957915,-0.7272038,-0.44817147,-0.36742032,-0.31519496,-0.691866,-0.3572589,-0.47799745,-0.11135884,-1.1131934,0.006365896,-0.80630356,-0.38976964,0.23725481,0.48815098,-0.3756865,0.19714746,-0.82339114,0.36636066,-0.5821785,-0.0059585124,-0.9717054,0.5043572,-0.51465327,0.23522645,-0.15386571,0.51116675,-0.14674297,0.8698415,-0.601144,1.1596364,-0.036536597,0.54697204,-0.28599232,0.20145515,-0.18593775,0.7149966,0.021429252,0.36047953,0.08989209,0.2944439,-0.677913,0.45301437,-0.03468937,0.54937696,0.10069095,0.3898828,0.055286936,0.35489973,-0.3724297,0.27732375,-0.16533752,0.55086243,-0.20662645,0.41109315,-0.018725527,0.4437629,-0.4546926,0.5286783,0.26149294,0.41475785,0.037232608,0.20955805,0.06417385,0.79500824,0.13016467,0.2665154,0.2532715,0.1853707,0.29709977,0.16736168,0.7879397,-0.104307376,-0.15286294,0.05680022,0.11353206,0.31826591,0.2415602,0.25061813,0.20334017,0.014055685,0.25625685,0.35218436,-0.2794947,0.020462876,-0.3692158,0.54803044,0.1322377,0.18381646,0.34946573,0.25159246,0.35801354,0.6033103,0.5975864,0.14527719,0.22182782,0.48975304,0.106992,0.59712535,0.6746849,0.16771905,0.26739272,0.14518186,0.30991283,-0.1719371,-0.08912806,-0.21002257,0.1560594,-0.46913505,0.40691286,0.23354533,0.39455187,-0.12100364,-0.042875987,0.3600855,-0.3174594,0.17466137,0.1983635,-0.33578897,-0.1380445,0.00615,0.13406366,0.1573241,-0.14733237,0.17559312,-0.016726509,-0.23141892,-0.012739626,-0.07052922,0.20396093,0.7329049,0.0042542596,-0.19677158,-0.0563255,0.09610621,-0.08240784,0.36903796,0.006702287,0.08984893,0.16042782,-0.07287746,0.21915549,0.47216523,-0.03170002,-0.3119081,0.17624037,0.017329706,0.40457177,-0.05197384,-0.2215047,-0.28883302,0.5601854,-0.3329525,0.4721992,-0.45043272,-0.44093952,0.9058747,0.7795826,1.2732507,0.94129187,1.4812487,0.92841476,1.0168788,0.85322005,0.9067083,1.5589958,0.96260315,0.71189153,1.286661,0.7180462,0.8484121,1.3572681,1.071898,1.194536,1.1760528,1.3812733,2.0134223,1.3793192,1.4687783,1.7831922,1.3729383,0.9873386,1.2907107,1.368825,1.4101138,1.3885549,1.286966,1.5474068,1.2774706,1.1001558,0.9630251,1.2574984,0.9189777,1.279158,1.0116665,0.82487965,1.6736041,1.0961126,1.3638731,1.6069059,1.1051358,0.8672397,1.1264235,1.2099495,1.1934185,1.0986286,1.3228675,1.5427234,1.4135398,1.8523306,1.4683795,0.93652284,1.6439112,2.172915,1.284226,1.626549,1.5835919,1.0906696,1.174514,1.276886,0.8330966,2.1635625,1.4230467,1.5382143,0.9186339,1.9277087,1.1288469,2.0107484,1.266524,1.7188168,1.4004483,1.2085863,1.3586886,1.1986668,1.4963645,1.111191,1.0095595,1.5324146,1.2788197,1.5814855,1.3270812,1.42467,1.2551665,0.927294,1.3177122,0.87115353,1.5197651,1.1454111,1.1676847,0.8160289,1.2582493,0.6228887,1.3108168,0.96694916,1.3485514,0.6874607,1.0729612,0.7976764,1.0928371,1.4905957,1.5224738,1.6380632,1.8457004,1.4912357,1.4823469,0.9706335,1.1558033,1.9375939,1.3036302,2.6578007,1.5498292,1.2633444,1.3671005,1.2457205,1.0980445,2.0566616,0.962124,3.724474,1.4742403,0.9303561,1.0395805,1.1336818,1.0715352,0.91774493,2.005314,1.0296612,2.558165,1.2585185,1.3381386,2.0483642,1.3856374,0.87248087,1.7785192,1.729224,1.2848465,1.5445781,1.0225065,0.89965516,1.5335699,1.4671189,1.598134,1.2000191,1.2000694,1.5065637,1.3589172,1.1522554,1.3211129,1.4093376,1.2562597,1.8049718,1.9166211,1.1388772,1.1748939,0.83608335,1.9251434,1.4713798,1.4052738,1.7117958,1.1055571,0.8341709,2.2667806,1.1370221,1.5741085,1.1384159,0.8790263,1.2599298,1.2840441,1.9331714,0.43514186,1.3058594,1.2668968,1.0287954,1.4221008,1.5772264,1.0689175,0.95671535,1.2324574,0.8117145,1.8169743,1.2106469,0.99504524,1.2357541,1.6929357,0.9613967,1.5904379,2.3269367,1.5664074,1.1768975,1.2877092,1.4035392,1.1451169,1.1113664,1.8896868,1.3319753,1.4804958,1.3526914,1.244267,1.1312423,1.4048567,1.2436154,0.88916147,1.1715336,1.2437384,1.362453,1.4337858,1.5564852,1.4737873,1.6886618,2.2150798,1.4323524,1.7686106,1.0556931,1.5320144,1.7524272,0.62116927,0.85564065,1.6401762,1.1490109,0.8189698,1.2556342,1.5707252,1.9516749,0.67892957,1.2005262,0.9333227,0.82167554,1.8344057,1.1239358,2.064559,1.1721159,0.692594,1.0078913,0.91133416,0.8422769,1.3866755,1.0708476,1.1150273,1.2668719,1.2141663,1.1765603,2.1243172,2.060366,0.841487,1.7913816,1.3202556,0.7883176,0.36314642,1.5792941,1.4049205,1.8048499,1.6684874,1.3903027
N#CN=S(=O)(NC(=O)Nc1c2c(cc3c1CCC3)CCC2)c1ccccc1,-0.6919516,0.3840559,0.06911176,-0.071575485,-0.090514496,0.22341762,0.09958053,0.7238542,-0.14207967,-0.2822155,-0.23455477,0.058453575,-0.2479727,-0.15406531,0.24094178,0.19760013,-0.17680211,-0.23686925,0.20591022,0.30357945,-0.3938849,-0.19494084,0.54449743,0.42424116,0.29205355,-0.20924248,0.043949477,-0.5404815,-0.73133636,0.08667264,-0.23009767,0.3726576,0.6422424,0.2400479,0.15554386,0.80781615,0.054961074,0.032971524,-0.7042674,-0.3471736,-0.34009376,0.59930074,0.26123464,0.04955253,-0.27596995,-0.10397022,0.13120382,-0.26209667,-0.053737614,-0.0110170925,0.033305842,-0.5042693,0.24410114,0.12933163,-0.4711031,-0.27340057,0.5600249,-0.14119618,0.077264205,-0.36344388,0.70656955,0.19183475,0.03268043,0.3015326,-0.3185525,0.8632239,-0.18273576,0.585256,0.06751415,0.38779494,-0.8529711,-0.18345337,-0.42152616,-0.02519332,-0.9866297,-0.19831626,0.33289388,0.06668948,-0.9685471,0.0951426,-0.19738431,0.43189862,-0.5998101,-0.40656817,-0.3881169,-0.6375335,-0.75675434,-0.002411604,-0.057154335,-0.21825568,-0.11968642,0.5339285,0.1166937,-0.09159884,-0.59796506,-0.9662995,-0.32527983,-0.9191486,-0.048255954,0.07416384,-0.45428663,-0.10145024,-0.059577666,-0.5713775,-0.53013784,0.07272387,-0.08508823,-0.6832132,0.16356151,0.1435848,-0.0960239,-0.33561137,0.29125702,-1.6266737,0.14458765,-0.5406658,0.26153228,-0.16831483,0.2838798,-0.21272667,0.5379611,-0.97729784,-0.1353745,-0.4255698,0.30837762,-0.18840325,0.17700557,-0.034474615,0.71998537,-0.041195933,0.90492237,-0.57742655,0.27898052,-0.69748855,-0.2669293,-0.24154939,0.8843185,0.010304523,-0.21774918,0.025673224,0.5506006,-0.43650216,0.574752,-0.97489774,0.21237296,0.2132455,-0.11085359,-0.46532756,0.525327,0.2831638,0.9401607,-0.065956555,0.24192105,0.0085115405,-0.26687157,-0.35219082,-0.13798657,-0.52435815,1.016799,0.16325659,0.032417655,0.3583276,-0.08108084,0.37661973,0.20688978,-0.05250056,-0.5814331,-0.018683553,0.42726755,0.59036934,0.3311063,-0.3390895,0.23009942,0.112494834,0.3237415,-0.025551705,0.37301138,-0.14244993,-0.38656822,-0.09575976,-0.0077965586,0.70436597,-0.07554536,0.12100328,0.061966762,-0.37074658,0.6856743,0.15363884,-0.18423326,0.3123587,0.606061,-0.6053631,0.67334044,0.43378454,-0.86251926,0.81329554,0.35758963,0.4994882,-0.08138339,0.17374983,-0.5104632,-0.42351463,0.16536997,0.21910359,-0.33516037,0.20158064,-0.75783986,0.03340246,-0.49508438,0.2842047,0.64376557,0.21281569,-0.07865869,0.046541665,-0.023711167,-0.49925035,0.14659464,-0.7521412,0.47613633,0.079087876,0.10140517,-0.22034353,0.25985724,-0.037179794,0.007977961,-0.2690135,-0.17584744,-0.11499791,0.17947233,0.7409151,0.49171925,0.73699766,-0.39550173,-0.044167798,0.07597523,0.30404794,0.35028356,-0.046867725,0.10324284,0.2138079,-0.33372456,0.14012866,0.61136955,0.17791396,0.16017729,-0.2816492,-0.11703291,0.051484603,-0.26061285,0.5987434,0.24013014,1.0756847,0.026656827,0.5676546,0.17210943,0.25619438,0.5392505,1.3069578,1.1824654,1.3472743,0.97055167,1.384219,1.4734329,1.856582,0.98922503,1.3473158,0.7548458,1.7600632,0.87401116,1.0170035,1.5831903,0.9421302,1.1955181,0.979146,0.8589194,1.1023082,1.4719794,0.5332269,1.3589327,1.0515342,1.4927222,0.8647256,0.82600874,0.84695405,0.78025705,0.8507139,1.261732,1.5339432,1.4514537,1.635867,1.1554892,2.1939733,1.6642628,0.94397914,0.53300875,1.3463223,0.9569908,1.3936509,1.0326691,1.2349126,0.9604287,0.9931791,1.9205085,1.51367,0.74274504,1.0167391,0.7753144,1.7433051,2.0686135,1.6795962,0.9601191,1.1661466,1.7857317,3.1567852,1.9128758,1.4022936,1.8822104,1.0823631,0.97418547,1.8467155,1.1567404,2.3603146,0.993548,1.819386,1.1214439,1.7608013,0.757537,1.2772868,0.8154223,1.6195554,2.2764401,1.69054,1.4782939,1.4740074,1.8595086,1.317187,0.9901341,1.6994076,0.98380286,1.1491839,1.8230301,1.1354824,1.2499468,1.2715487,1.9007046,1.2598463,1.4121875,1.6367149,1.3610032,1.0113337,0.8905968,0.8108752,1.0287323,0.7313161,0.97338617,1.4479468,0.80304366,2.0249653,1.6461637,1.7789805,0.8758708,1.422383,1.1779009,2.0290465,1.6002257,1.6138779,1.1237876,1.8545996,1.5321857,1.6661681,1.3030714,1.7725112,1.5767949,1.8258685,1.3706194,1.30905,2.2176156,3.7181199,1.4494683,1.1414212,1.4376996,1.4506149,1.3274653,1.4028144,1.675497,1.2842727,2.0051064,1.2248486,1.8092291,0.9846209,1.0211267,1.2016696,2.0426416,1.4502953,1.858553,1.5831324,1.5947486,0.89555365,1.9623278,1.0142449,1.4957461,1.117298,1.8497375,1.0339024,1.6823558,1.1348774,2.1385553,1.0770018,1.0465407,1.4987057,1.5410584,0.78166753,1.0804808,0.955762,2.0853112,1.250686,1.526888,1.117117,1.251692,1.1414064,1.4108628,1.2178471,1.3884169,1.2941563,1.3933599,1.5031965,1.1347647,1.4069967,0.8207877,1.2214637,1.1837739,1.3051064,1.3187059,1.2347217,0.9550389,1.1964011,1.9275892,2.1816678,1.6776801,1.7070955,1.2863089,1.0001515,1.4933523,1.8158424,1.4436104,2.7040331,1.5629673,1.0206509,1.6691493,1.287691,1.16026,2.3224685,1.6618682,1.9443393,0.85109216,1.2075018,0.7029101,0.9318337,2.215181,1.3817346,0.6236236,1.3222978,1.0591638,2.0859313,0.72486746,1.603156,2.0457034,2.026217,3.9080544,1.0602725,1.3221148,1.1831958,1.9280543,1.0859799,1.7675483,0.9764029,1.4949697,0.890921,1.7709262,1.0843232,1.8598443,2.2412431,1.0412751,1.134349,0.9955614,1.4253935,1.8163731,1.8461014,2.010541,1.5326915,0.90921676,1.3163707,1.1095432,0.9294338,1.4441016,1.3090496,1.0847193,1.0438455,1.770613,1.1825403,1.050575,1.6062214,1.1787422,1.3839731,1.8217402,1.4141856,1.4526652,2.8922684,1.2928915,1.550065,0.8676997,1.6305511,-0.07483191,-0.0019908147,0.28753138,0.16471358,-0.5110721,-0.07484816,0.0993554,0.16047333,0.080909684,0.04293803,-0.13846995,0.13290636,-0.06640494,-0.32160962,-0.189892,0.5913218,-0.012523422,-0.15884225,0.060582574,0.24294552,0.264445,-0.2643719,-0.25611728,-0.07119304,0.2297247,-0.09530408,-0.0011868132,-0.1415703,-0.5412337,0.14422573,0.10774597,0.15202145,0.6784189,0.02332077,-0.49624622,0.29146525,-0.19026487,0.42636198,0.064801276,-0.37057057,0.3263008,0.25270313,-0.09835041,0.47037318,0.095474854,-0.027138026,0.20416561,-0.1140461,-0.39680162,0.102270916,-0.07000527,-0.30406004,0.0744074,0.076711506,0.14573163,-0.24175419,0.5895189,-0.19531174,-0.20737484,-0.08689121,0.31464624,0.10292101,-0.000882271,-0.08032203,-0.26761007,0.64453155,0.089643665,0.36616048,-0.22901809,0.6030164,-0.6550983,-0.29810017,-0.54547983,0.49746507,-0.7631646,-0.1407687,-0.54597926,0.027204245,-0.69300175,-0.2564113,-0.6912695,-0.21716805,-0.3668514,0.06944215,-0.7644132,-0.6508601,-1.0052265,-0.57449055,-0.5511966,-0.34049445,-0.85293454,-0.12707768,-0.06392878,-0.23740336,-0.3346651,-0.716156,-0.3844103,-0.35487348,-0.20158479,-0.79741925,-0.5863858,-0.8998151,-0.39085647,-0.38280064,-0.4314026,-0.71309614,-0.2898038,-0.438671,-0.08046767,-1.1364819,0.12830018,-0.82315594,-0.36911997,0.33474213,0.5400469,-0.4387286,0.23370703,-0.80502367,0.4424619,-0.5939389,0.015828416,-0.8801637,0.47669458,-0.5399319,0.27678776,-0.14902887,0.49703264,-0.09710335,0.8199924,-0.66690254,1.1779335,-0.043928437,0.48639095,-0.31571725,0.15056543,-0.094914384,0.7953038,-0.0007738159,0.30662143,-0.08748945,0.16745296,-0.76564777,0.39630598,0.01505504,0.5475299,0.08429332,0.39279237,0.04507362,0.41724136,-0.40289593,0.30106908,-0.21708485,0.61855,-0.23279397,0.36702716,0.11749021,0.3838689,-0.4926409,0.5916284,0.30858818,0.40725294,0.022748487,0.19294432,0.15051414,0.7993824,0.08839133,0.31998643,0.18648115,0.13715911,0.2592512,0.058757327,0.80296075,-0.010440723,-0.24876899,0.05608575,0.074256375,0.33032998,0.25949526,0.29415023,0.20498365,0.05783891,0.17876521,0.36207438,-0.2982616,-0.033073336,-0.31272474,0.6077136,0.15184215,0.11995992,0.36070567,0.27908713,0.47344226,0.6144897,0.6239402,0.1499666,0.18709432,0.50604,0.0932491,0.6494242,0.64765346,0.08480174,0.19498311,0.25691923,0.36675563,-0.18997225,0.062305063,-0.20612375,0.19538686,-0.5069829,0.36108908,0.22683819,0.35084403,-0.14430235,0.010216928,0.36385152,-0.32077578,0.23714319,0.21763584,-0.39839634,-0.14723483,0.098647624,0.12055101,0.07945391,-0.11616527,0.22659189,-0.019724034,-0.31239802,0.023852883,-0.0600698,0.07563393,0.6858557,-0.026779123,-0.10634582,-0.042973623,0.18170694,-0.01288027,0.38017955,-0.1091628,0.08898197,0.10059701,-0.07755391,0.27149495,0.41950735,-0.00749246,-0.21628958,0.22474892,-0.0029731467,0.4220175,-0.041462157,-0.20115972,-0.31918067,0.5388333,-0.25011256,0.5175343,-0.4086459,-0.48024538,0.9787562,0.8036016,0.874923,0.83209974,0.592665,1.1779375,1.144459,1.0491741,0.9643525,1.6902899,1.2338221,0.6819112,1.4334002,0.92681885,1.2148874,1.4900327,1.1152587,1.477215,1.3087568,1.4102815,1.7271019,1.4551606,1.0697875,1.0640914,1.3523,1.3198992,1.7580838,0.9020198,0.9859458,1.0013623,1.1673331,1.6463976,1.4407829,1.4194179,1.2305083,1.1489695,0.93286556,1.6054184,1.0102386,1.174702,1.7261851,1.381939,1.158638,1.4141613,1.1526324,0.8892528,1.5527699,0.97939074,1.0246801,1.1653003,1.1052686,1.7849243,1.3114257,1.6343849,1.5564426,0.9793078,1.617255,2.4799726,1.4245722,1.5826682,1.5965124,1.1550374,1.4258317,1.2441887,0.9520001,2.0209923,1.2989231,1.5410385,0.8898902,2.051372,1.1761298,1.5659839,1.1000255,1.646449,1.7428315,1.0592374,1.2294536,1.3429751,1.0855073,1.2307405,0.7127993,1.3581555,1.0812156,1.3411674,1.2120703,1.4909736,0.97856265,1.0762514,0.975161,0.65378284,1.4964519,1.2201629,1.1312352,0.9984032,1.0929807,0.71931666,1.3523318,1.0595171,1.605519,0.6231006,1.1770972,0.5579211,0.9257785,1.1417954,1.1869154,1.1105766,1.0777446,1.8450248,1.7734102,0.91375846,1.3382032,2.0924833,1.1671932,2.9441743,1.5635589,1.2553802,1.3098367,1.2376708,1.2142596,1.5888046,1.0960557,3.780608,1.1292638,0.75147295,1.115593,1.4007493,1.0462914,1.387718,1.561811,0.940521,2.2107203,1.0458624,1.2390943,2.0200474,1.2845324,0.84707737,1.7643051,1.3687047,1.4811302,1.142861,0.81075644,0.5845036,1.440826,1.20515,1.4663064,1.2657617,1.2375593,1.3876997,1.3255228,0.7402898,1.047832,1.3080599,1.2974494,1.7567152,1.7092906,1.122318,1.1058081,0.6652598,1.8144406,1.2649539,1.3544718,1.6186824,1.4008163,0.94026333,2.0658917,1.4472715,1.8319836,0.9847018,0.82432526,1.2576427,1.2461596,1.7913272,0.5195368,1.0742635,0.6827883,1.1241494,1.3336002,1.2714856,1.1178681,0.9657298,1.3857262,0.7874637,1.2957999,1.2344424,0.88027596,1.204147,1.5580192,0.86833256,1.2282407,2.592624,1.6709818,1.4620265,1.2977406,1.4586214,1.8870432,1.2241392,1.7748964,1.4641427,1.5426556,1.2353358,1.1754595,1.5905712,1.8386327,1.0584724,0.8434203,0.9562661,1.1751573,1.4705364,0.68148226,1.4225913,1.6408746,1.5616668,2.2496185,1.2982717,1.7323924,0.8540376,1.5790148,1.340744,0.6173491,1.1041905,1.7755387,1.3961687,0.9048022,1.197017,1.487441,2.0542424,1.1344783,1.3285236,0.7921295,0.9422752,1.8959919,1.030523,1.6267242,1.1867472,1.2542315,0.96426123,0.8522205,1.3405427,1.505824,1.5244855,1.0999645,0.8186547,1.0329527,1.3519534,1.7164066,2.3874032,1.0800627,1.0967551,1.2196088,0.8643749,0.5966966,1.995228,0.82973385,1.8917135,1.41001,0.9901966
CC(C)c1cc(Cl)cc(C(C)C)c1NC(=O)NS(=O)(=O)c1cccc(C(C)(C)O)c1,-0.7177902,-0.0036771863,0.15826154,-0.283772,-0.40431958,-0.21411374,0.2016587,0.47653955,0.19604306,-0.015627464,-0.31074354,0.33239287,-0.062007215,0.252138,0.07923095,0.10813798,0.14214095,-0.292815,0.2200831,0.018328378,-0.23920274,-0.27219114,0.4180844,0.20111743,-0.14518674,-0.3460318,-0.33780688,-0.28091162,0.1035181,-0.29887354,-0.037647773,0.53004616,0.026336828,-0.06257302,-0.15057883,1.1532189,-0.09221641,-0.2279244,-0.5767433,-0.7378797,-0.2943282,0.51246,0.3338562,0.10532566,0.21708517,0.00069125975,0.2304663,0.14272729,-0.1374905,0.39821127,-0.22400919,-0.32028064,-0.28812248,-0.08087656,-0.42477697,-0.13319185,0.21109194,-0.26801848,0.13842364,0.3441512,0.21752127,0.11304023,0.30350006,0.41913432,-0.48984578,0.7042203,0.5348642,0.27417675,0.71382993,0.22981328,-0.42659461,0.3327902,-0.30601138,0.21654896,-1.0639979,0.38944498,0.31791833,0.5508305,-0.42444387,0.07620573,-0.48533934,0.61517584,-0.72850174,0.178861,-0.38620058,-0.4273499,-0.5037151,-0.6357965,0.030931467,-0.19834186,0.07503161,0.92348224,0.2848578,0.08302407,-0.4632931,-0.8154145,-0.26145464,-0.95786077,-0.43834627,-0.11855539,-0.2360112,0.038159598,0.087329544,-0.34105244,-0.35074654,-0.3397568,0.1897244,-0.7338402,-0.059328444,-0.03197866,0.01983388,-0.64489126,0.2391277,-1.1966476,-0.2179207,-0.48186105,0.3348003,0.060164455,0.3792716,0.0503497,0.31245783,-1.0469474,0.114068344,-0.25628397,0.56276804,-0.7592961,-0.13655725,-0.6103356,0.69727296,-0.19686536,0.5255462,-0.36312327,-0.007932521,-0.20219617,-0.020747786,-0.22353198,0.5819288,0.020874543,0.20084678,0.033458475,0.4755912,-0.35111076,0.22229387,-0.23156677,0.19821908,0.17186885,-0.07518672,-0.3564212,0.3583444,0.21505037,0.45369765,-0.43028364,0.17631581,-0.53670734,0.07929572,0.16801468,-0.09600471,-0.41144758,0.85865605,-0.25892016,0.2592878,0.087270916,0.0978438,0.022877682,0.26796082,-0.46663803,-0.38107738,0.09890312,0.29033226,0.72825503,0.3160419,-0.62034184,-0.07083982,0.06599651,0.30601618,-0.3525833,-0.013273805,0.28295764,-0.14691965,-0.12657844,0.23744915,0.34635532,0.35135883,0.1928335,0.529734,0.09849127,0.58482534,-0.16690716,-0.05410014,-0.037089407,0.2636812,-0.07467992,0.42167413,0.48620215,-1.1613833,0.7802574,0.32513323,-0.10601057,0.010086057,-0.027341394,-0.053785138,-0.3258377,0.56890774,0.067739986,-0.2522778,0.09329911,-0.39671382,0.05995822,-0.23281783,0.22628123,0.30061418,0.30083108,-0.24562694,-0.523547,0.2467481,-0.7465582,0.18312949,-0.33712593,-0.19208376,0.13479443,-0.06127689,-0.08588339,0.46627823,-0.34322727,-0.11297967,-0.076986216,0.29497796,0.30442932,0.19018577,0.48621172,-0.079870865,0.40024117,-0.53284204,-0.25646615,0.14251518,0.05856779,-0.039281122,0.09432018,0.4093269,0.84786224,0.37839976,-0.015852815,0.30429897,0.026487421,-0.024447866,0.08947631,0.06650705,0.55024165,-0.1402494,0.07238472,0.11457583,0.8915591,-0.38322097,0.25128564,0.15791856,-0.4773578,1.0444545,0.9749671,1.7384514,1.1734811,1.4914631,1.3580729,1.4124199,1.2158947,1.2795562,1.05765,0.99393696,1.3784965,1.4945499,1.9792454,0.93815863,1.479312,1.4562427,1.0474062,1.3834784,1.1811548,1.4467847,0.776152,1.1496414,0.99599034,1.1730602,0.94611156,0.8331841,0.9595974,1.1151537,1.0374823,0.9704596,1.3217882,1.2578357,1.1560272,0.8242534,2.1351013,1.5520439,0.98206574,0.9633252,0.79811156,1.1145169,2.3090217,1.7615529,0.8450675,1.2017057,2.0381515,1.6353718,1.4747266,1.0882193,1.4197527,0.9218212,1.3207068,1.9529555,1.33434,0.933863,1.3537412,1.4787096,2.8487535,1.7023718,1.5565491,1.6416895,0.9063491,1.067976,1.4511716,1.3331858,1.9174541,1.8283387,1.8373926,1.7869447,1.8198589,0.9714991,1.4793062,0.9578089,1.4815831,1.2806984,1.4402075,1.4429896,1.487951,1.4976273,1.3993154,1.2345582,1.8885565,1.3580989,1.2603946,1.8171536,1.2096796,1.1995043,1.3041843,1.5602386,1.010178,2.1832602,1.7718816,1.4090552,1.1064676,1.2535002,0.8112655,1.7907456,1.1523386,1.1927743,1.5301309,1.1960886,1.7969232,0.91386324,1.6513755,0.8247897,1.8395748,1.5369928,1.7503209,0.8628174,1.6890858,1.3430843,1.631491,1.7582237,2.1903172,1.1085622,1.1096898,1.8740903,1.6602811,1.2878153,1.315024,1.6634593,3.7341123,1.2892785,0.7687689,1.6254243,1.2836617,1.6099641,0.6934121,1.9679017,1.2918258,1.6877239,1.1306776,1.3047704,1.6496475,1.8017302,0.8854738,1.5551518,1.5655755,1.6498729,1.4598153,1.5845145,1.4021866,1.1163139,2.0013165,0.9915122,1.2587514,2.1080418,1.6039858,1.3684798,1.4786253,1.6528671,0.94904155,1.5276804,1.4509815,1.180469,1.6189781,1.2460195,1.2758814,2.2597337,1.251277,1.3237244,1.2669243,1.6051601,1.0782852,1.7220407,0.8984817,1.2281207,1.3292942,1.7693993,1.70431,1.4042805,1.0059093,0.5168531,1.1208589,1.6098397,1.0687068,1.2076085,1.0942588,1.2886745,1.2863322,1.414151,1.353917,1.8831972,1.5700223,1.6184319,1.1169928,1.4074622,1.2861344,1.3575808,2.0423872,1.2809774,1.2398825,1.6028343,1.0925388,1.4212093,2.2303085,1.5734534,1.1506401,1.0942403,1.4548078,0.8845131,1.5532436,1.9813874,1.0395253,1.5710537,1.5491455,1.2767961,2.3603024,0.65577507,1.1263046,1.0007235,1.9402927,3.478466,0.8126426,1.296686,1.0398285,1.4998829,1.5239861,1.224551,1.307284,1.6942629,1.2877685,1.536587,1.4710276,1.1159326,1.7709452,1.1263155,1.2327365,1.6699775,1.399694,1.9498352,1.5849346,2.238121,2.0511243,0.96508396,1.3830096,1.0621202,1.4939396,1.4266049,2.1655788,1.9669626,0.7104753,1.7904121,1.8810936,1.1153417,1.6883807,1.0474037,1.4672343,1.4385382,1.0695506,1.0161396,2.068968,1.1718138,1.6898891,0.75845474,0.9393488,-0.267107,-0.0676368,0.22386211,0.031378075,-0.52415365,-0.04565539,0.051514547,0.16019061,0.114125244,0.27865428,-0.049055517,0.25407946,-0.12853986,-0.29271185,-0.04882394,0.5586731,0.08200779,-0.0026977826,0.113169074,-0.032941725,0.21272655,-0.21517387,-0.27402285,0.041919205,0.32199904,-0.22046535,0.031547416,-0.18943012,-0.4954458,0.20322782,0.0043097604,0.11399966,0.57451195,-0.1785624,-0.41988474,0.36977643,-0.18390921,0.40793675,0.10547568,-0.37894657,0.11605736,0.09367911,-0.009758342,0.3696533,-0.008435317,0.2137804,0.15894242,-0.15940441,-0.34942174,-0.008586562,-0.19959483,-0.056654014,-0.08966893,0.116708755,0.12874928,-0.24868454,0.44067973,-0.27258047,-0.21111788,-0.24040344,0.10615966,-0.0323726,0.33443317,-0.1527768,-0.381322,0.51309353,0.23682906,0.21584062,-0.3848685,0.33933505,-0.5563097,0.12860188,-0.56153095,0.52664655,-0.6916392,0.061323836,-0.28864664,0.13567239,-0.7687613,0.018969517,-0.43522388,-0.2215155,-0.37244597,0.34880435,-0.5253657,-0.64100873,-1.046057,-0.19564492,-0.5776241,-0.14732753,-0.5582451,-0.2762096,-0.19429553,-0.2779562,-0.06154364,-0.44552585,-0.49182728,-0.26604593,-0.43044123,-0.7270822,-0.42768276,-0.59893167,-0.5343953,-0.42022774,-0.3044889,-0.6300049,-0.14223301,-0.58436185,-0.35910034,-0.9924069,-0.027625397,-0.98416984,-0.17766556,0.14162666,0.38771537,-0.47316375,0.16988191,-0.77449477,0.43639696,-0.66985327,-0.09629533,-0.8805432,0.37636763,-0.6812395,0.23642598,-0.12077329,0.51045763,-0.24035884,0.6912624,-0.437459,1.2208552,0.120640114,0.5410775,-0.39525652,0.3219545,-0.26477876,0.479977,-0.38294244,0.28676087,0.07925504,0.074035116,-0.6405843,0.45727566,-0.025709376,0.5787008,-0.007485492,0.41353104,-0.09221942,0.27350417,-0.3645253,0.527309,-0.14099987,0.57423687,-0.06459297,0.3825451,-0.009043924,0.5553473,-0.34512612,0.48387948,0.08507235,0.5530788,0.053809453,-0.057015084,0.08396153,0.8048168,-0.17427944,0.32711306,0.13967678,0.19747864,0.5767985,0.06583143,0.6731264,-0.20317721,-0.19578235,0.09549588,-0.032331154,0.38749877,0.44924185,0.27676105,0.19477625,-0.08254476,0.17452987,0.41299984,-0.37455165,0.043535333,-0.15225174,0.5655212,0.2902232,0.21125956,0.20914058,0.34636867,0.2505339,0.58284676,0.4118101,-0.041371107,0.038090684,0.5974384,0.09664889,0.7489206,0.7108258,0.34728348,0.07137589,0.030580059,0.22304301,0.06330653,-0.23397188,-0.012273954,0.46741515,-0.6804721,0.3142894,0.16184898,0.41267973,-0.26603207,0.2320343,0.18069798,-0.22530067,0.12308253,0.11980478,-0.29193845,-0.109334044,-0.038684763,-0.018833078,0.37791538,-0.093531236,0.26731586,0.00034331763,-0.13219176,-0.0536963,-0.07580284,0.028299805,0.61762404,-0.03637186,-0.36139274,0.15519635,0.16133294,0.094437115,0.2334243,0.06848625,0.35077047,0.23506388,0.14690642,0.37049004,0.35786304,-0.21327311,-0.2889701,-0.062670656,-0.0020849828,0.50111765,0.0049297945,-0.12506044,-0.28851137,0.524896,-0.18946086,0.42014313,-0.38047054,-0.3458618,0.8332891,0.7235555,1.1644204,1.0158615,0.8575376,0.8515596,1.1649648,0.85971946,0.9659908,1.2502118,0.99620956,0.9689945,1.2108411,1.0159034,1.1435328,1.8206427,1.3338144,1.1006672,1.5965512,1.0721287,1.3788996,1.2209942,1.1580982,1.2873921,1.25183,0.9317926,1.1346235,1.4116715,1.0623147,1.7577697,1.2093208,1.2223911,1.3482598,1.1802709,1.2455307,1.4049182,0.90997034,1.6889255,1.1934372,1.3518943,1.5495061,1.1972243,1.2249677,1.4831564,1.4569128,0.97407573,0.973646,1.3418248,1.1094565,1.3081843,1.0859736,1.128491,1.8327183,1.6625427,1.341171,1.0294875,1.9948176,2.5399816,1.1506838,1.6579217,1.4458956,1.3442097,1.3774954,1.6561126,1.4210716,1.9033593,1.3756604,1.5953441,0.99287856,1.813398,1.4329032,1.6941206,1.2473769,1.898537,1.0530032,1.2262874,1.1035095,1.4129156,1.4335622,1.1905848,1.0066739,1.4421345,1.5856794,1.3908509,1.2593503,1.2305237,1.3175181,1.2630512,0.97332793,0.89968777,1.5596666,0.9737957,1.0968143,1.1271943,1.5693716,0.9202397,1.2426362,0.8971155,1.563988,0.70337605,1.2929957,1.4930141,1.1153433,1.3852468,1.1572595,1.2376945,1.5273721,1.4249195,1.1971143,1.1972837,1.298982,1.2463324,1.6370862,2.8953912,1.4716388,1.258098,1.2519189,1.0923841,1.238235,2.011425,0.80736136,3.773312,1.4343494,1.0063015,0.9766776,1.2827051,1.0652672,0.9872291,2.0341415,1.4545573,2.6521466,1.4150829,1.2065251,1.8023232,1.4122169,0.9368135,1.5772995,1.6394912,1.3501034,1.3966742,0.9538359,1.3436303,1.4309605,1.2762957,1.4549216,1.0420709,1.3460181,1.0382383,1.2068772,1.2954029,1.6807091,1.1008539,1.3362613,1.4636537,1.7813923,1.3257906,1.7110538,0.9811746,1.5518684,1.3667406,1.9399358,1.7728739,1.2726439,0.9175848,2.6423738,0.99671847,1.3555492,0.92935365,1.0803207,1.5257899,1.2102817,1.6412438,0.27808076,1.5499091,0.82965034,0.9799469,1.3407161,1.1650457,1.2590786,0.95994943,0.99150187,1.0401233,1.5905453,1.455032,1.079815,1.1278249,1.7214311,0.9772227,1.6400049,2.6031804,1.4497252,1.0006882,1.9755995,1.431953,1.2076398,1.348536,1.7790976,1.8915182,1.6648593,1.5864035,1.2406657,0.9958222,1.4316686,0.94731826,1.1946404,1.8209063,1.3776528,1.6094686,0.6654025,1.5175946,1.0059222,1.8105358,2.3732924,1.9005803,1.8143513,1.186432,1.4506751,1.2181882,1.0885075,1.4805634,2.1470983,1.7204841,1.2906377,1.0452911,1.6515782,1.9509337,1.1924561,1.5261226,0.8613123,0.73597646,1.7740502,1.0672427,1.961751,1.3849286,1.4198966,1.5474774,0.8953466,1.6611168,1.8810693,1.3871728,1.2885747,1.048165,1.0530586,1.2340776,1.074402,2.5977073,1.1929071,1.5610791,1.533635,1.0618545,0.7584421,1.2527217,1.2632315,1.8245568,1.5121088,1.1961703
CCN(CC)CCOc1ccc(C(=C(Cl)c2ccccc2)c2ccccc2)cc1,-0.109380305,0.79506,0.10986492,0.17447188,-0.15671775,0.25283477,0.37202147,0.7357451,0.0104793385,-0.35250235,-0.38617507,0.37675673,-0.2009811,0.049461488,0.33269572,0.044303987,-0.3312732,-0.24919812,0.3273763,0.23407224,-0.60396934,-0.19402243,0.32696283,0.48223004,0.009706081,-0.47054455,-0.22385411,-0.45840183,-0.5759146,0.21273288,-0.11947349,0.7242685,0.5991476,-0.03725083,-0.3346132,0.93467325,0.6042079,-0.009091037,-0.06284501,-0.40174615,-0.11659595,0.32382157,0.23693098,0.33439264,-0.27522653,-0.1981379,0.25359032,0.16480504,0.39204523,0.12724066,-0.06330184,-0.52057755,0.53270525,0.030908152,-0.49338827,-0.37183726,0.46972376,-0.031990875,-0.3952823,0.07368854,0.050358813,0.35544413,0.4243743,-0.28080162,-0.5352578,0.6047098,-0.034562662,0.26117715,0.013544524,0.05509858,-0.48897946,-0.02360199,-0.62419295,-0.22863325,-1.8011659,-0.24782209,0.15438546,0.45617923,-0.913436,0.17493288,-0.14900202,0.718896,-0.31424117,0.015308229,-0.23090532,-0.4384689,-0.8783906,-0.31987137,-0.061918948,-0.026667042,-0.23150018,0.36923242,0.076848306,-0.3555787,-0.560231,-1.5129076,-0.24456957,-1.0321769,-0.19203348,-0.041430037,-0.029434375,-0.3132947,-0.07929213,-0.6385531,-0.4839967,0.14858042,0.011018796,-0.8875037,0.26122847,0.049902003,0.011812085,-0.10893494,0.1740438,-1.4107722,0.051252052,-0.580677,-0.20337924,0.1444855,0.31616488,-0.43023628,0.17485681,-0.79816437,0.37171376,-0.5195315,0.52998763,-0.28731382,0.15741558,0.054331157,0.53378093,-0.31764048,0.5190495,-1.0249298,0.015267942,-0.60975957,-0.2536155,-0.17610276,0.7894485,-0.1591611,-0.087732814,-0.013867375,0.6436452,-0.014903576,-0.007233609,-0.41872054,0.56412935,0.2568378,-0.11335156,-0.40161052,0.76046413,0.40296596,1.2116024,-0.20005327,0.54307383,-0.24602771,-0.39109072,-0.017803375,-0.31345344,-0.56983304,1.0653224,-0.4041631,0.25954634,0.38963133,0.39233515,0.23179777,0.32068053,-0.6042224,-0.5042582,0.2762906,1.0254861,0.3649003,0.2010469,-0.7094574,-0.3449128,0.12607767,0.24864666,-0.46110666,0.20564134,0.2767655,-0.0723123,-0.09060927,0.3900276,0.72607183,-0.2943654,0.19289549,0.3449819,0.0040405216,0.58148175,-0.44702232,-0.27467364,0.02164365,0.59998596,-0.2504176,0.105725296,0.57745975,-0.7935724,0.86364275,0.5268909,0.5302546,0.4060753,0.017305493,-0.3714597,-0.2945987,0.8949953,0.51458836,0.012184574,0.4512856,-0.8044588,-0.12858272,-0.51555985,0.215822,0.49787977,0.4775828,-0.17480883,-0.5696726,0.10224721,-0.679315,0.3597256,-0.6688712,0.5266088,-0.023187442,-0.13303727,-0.5279927,0.37610447,0.12790191,-0.65561515,-0.21858235,-0.14003906,0.12434811,-0.12854862,0.26658925,0.2252041,0.40164095,-0.87336934,-0.099853985,0.5686699,0.325322,0.34458837,0.032740723,0.17337222,0.93283165,0.24494696,-0.5869035,-0.06691611,0.22003673,-0.20262888,-0.17414922,-0.32895705,0.72859704,0.10804355,0.29032204,0.36086434,1.5094845,-0.66999733,0.23516512,0.2244958,-0.24535762,0.9847364,1.6553009,1.3276737,1.1823542,0.80246097,1.1632924,1.374616,1.395319,1.2276521,1.23274,0.6338183,1.4572322,1.3415188,1.8107808,0.9257772,0.89043844,1.1433047,0.78940654,1.1390052,1.112608,0.68808347,1.1862786,1.4812222,0.9840108,1.2820989,0.95553553,0.8060436,1.3611956,0.9084511,1.1145425,1.2750951,1.7554327,1.5317394,1.3509558,0.4818265,1.895019,1.8051096,0.97116053,1.0750103,1.104982,0.9088523,1.229374,0.95833653,1.1094054,0.6403199,1.4677918,1.217207,1.1639252,1.0498449,1.0602192,0.76342195,1.1865114,1.7486106,1.0619273,1.1674293,0.9122313,1.3585594,2.526108,0.88181734,1.2495091,1.3385075,1.3140638,1.5308237,1.1407433,1.0266356,1.9273831,1.0619719,1.7793472,1.3835163,1.0914619,1.0547378,0.9575007,0.96400356,1.5224181,1.3280128,0.8334542,2.026654,1.3294756,1.4418479,1.310871,0.84739596,1.7202531,1.4979491,1.3096949,1.4695038,1.2869523,0.43268383,0.93327886,1.6208836,1.0312203,1.8717237,1.6203057,1.6347213,0.82870907,0.85734177,0.6347528,1.29001,0.6243039,1.1615208,1.0433953,1.694227,1.9178523,1.1041114,1.4641896,1.1873446,1.4406756,1.6603428,1.4469857,1.0327896,2.1770575,1.059938,1.5048399,1.4029568,2.1553617,1.1806421,0.7142589,0.9281137,2.413213,0.95950246,1.5750462,1.2934002,3.640821,1.7307137,0.7335192,1.5947556,0.8328713,1.032316,0.9248935,1.263656,1.4454881,1.3746157,0.6175223,0.9591435,1.6405891,1.6527002,1.6362134,1.6832104,1.1414764,1.0119077,2.0771832,1.9156185,1.7613297,1.4373468,1.8279535,1.5820572,1.2075925,0.8812799,1.0152949,1.8189304,1.6022159,2.3300009,2.4941685,1.3270007,1.8588339,0.57949287,0.7618121,0.90189487,0.70980036,2.0534053,1.9520576,1.7215221,1.3127631,1.4428529,1.0207449,1.4787831,0.8116562,1.7391708,1.4476687,1.6650556,1.0824981,1.2493759,0.96641135,0.14652906,1.1750685,1.2351054,0.68796504,1.1859944,1.3508414,1.5234184,1.0878961,1.5992699,1.6531187,0.9105131,1.5085866,1.402765,1.3442401,1.429187,1.5514116,1.2895957,1.443378,1.4549059,0.6595364,0.94832605,1.4122314,0.9717943,1.667964,1.1886501,1.0686558,1.3202723,1.0404389,1.2144773,1.7545557,2.5821733,1.6314089,1.5651511,1.833333,0.9031779,1.4790548,0.6700613,1.0992289,1.5674146,1.4221566,3.312674,1.1217593,1.8613834,1.6237249,1.5442775,1.7595276,1.3886254,0.57538885,1.3617259,0.7531402,1.2719727,1.2717289,0.49843228,2.091312,0.9369461,1.4673716,1.2535112,0.962049,1.0231255,1.2548647,1.0954136,1.4124533,1.518672,0.9868009,1.2189461,1.4581722,1.1550646,1.629327,1.5807197,0.78652704,0.9035399,1.5275927,0.88839746,1.670747,1.0208585,1.5637136,1.1237403,1.4467338,1.7926031,2.2673182,1.1130451,1.2042493,1.0159425,1.5226096,-0.0016059937,0.04115338,0.49591628,-0.009944044,-0.5783241,-0.08129363,-0.062303994,0.28671515,0.26862994,0.10339639,0.053468447,0.16158172,-0.0695536,-0.30210316,-0.13445275,0.52969766,-0.00056309556,-0.115168035,0.11177694,0.33393392,0.30990973,-0.234603,-0.38744065,-0.101205096,0.3658004,-0.005182954,-0.13816729,-0.15699215,-0.5126792,0.28284124,0.10814147,0.11427892,0.61605304,0.076438926,-0.641276,0.33575627,-0.051753115,0.85044336,0.15994288,-0.28494826,0.2707985,0.10781828,0.119950816,0.5960361,0.06570818,0.07204616,0.16000955,0.0188919,-0.39252073,0.1501642,0.04395488,-0.3560016,0.34209824,0.15930006,0.114522055,-0.30893952,0.6132123,-0.13346349,-0.07201245,0.23947805,0.04505802,0.0047375383,0.15911628,-0.20417807,-0.27939245,0.7666516,0.13816729,0.27394208,-0.64285296,0.4670532,-0.6329827,-0.5335075,-0.7979573,0.13586283,-0.80992043,-0.12374267,-0.5112134,0.14714001,-0.9509526,-0.053772073,-0.5765737,-0.36576018,-0.10397453,0.23303527,-0.5443582,-0.8410519,-1.0699618,-0.6568323,-0.434347,-0.3476189,-0.8534131,-0.37384668,-0.18524764,-0.4335015,-0.11423712,-0.8930924,-0.4035431,-0.3704053,-0.15277745,-0.885247,-0.53175277,-1.1552906,-0.13778436,-0.31664217,-0.42797127,-0.6568356,-0.10514865,-0.507343,0.0022288703,-1.1227363,0.33171028,-0.6675096,-0.2661314,0.16260996,0.44693944,-0.19485353,0.14133562,-0.78267145,0.5799249,-0.67330307,-0.0071865027,-0.9342467,0.68265694,-0.44300562,0.39868125,-0.17791419,0.41062963,-0.12015634,0.72076416,-0.38591558,1.1471187,-0.2110385,0.31119522,-0.29499477,0.1611538,-0.094721474,0.75052047,-0.24348663,0.23477589,-0.18771556,0.34306598,-0.6846093,0.41460332,0.12266208,0.38107565,0.23566367,0.44354406,-0.137167,0.37973037,-0.37299907,0.4030716,-0.38689542,0.73378044,-0.25550348,0.0414104,-0.09686197,0.47326672,-0.21611695,0.63078177,-0.13052113,0.6515022,0.12820767,0.18456064,0.24227963,0.8223789,-0.13260843,0.40394107,0.21693285,0.20912814,0.45104775,0.020626744,0.7815874,-0.6047612,-0.11015291,0.051475596,-0.15531002,0.5728667,0.47555375,0.31374645,0.051292017,0.041997246,0.14612164,0.47963926,-0.27615446,0.05950706,-0.3279063,0.43814778,0.049712684,0.20442036,0.11757017,0.38328612,0.45723906,0.6189013,0.4463471,0.2571875,0.20791583,0.5001233,-0.13102151,0.58641434,0.7545052,0.22642595,0.30121174,0.51819116,0.35653508,-0.10097368,0.037830573,-0.15085046,0.15797155,-0.7259902,0.0069365883,0.46714717,0.039905604,-0.22176994,-0.17102791,0.6916916,-0.5472179,0.40715685,0.19152547,-0.4265838,-0.53192776,0.11406201,-0.3771536,0.24985333,-0.16860162,0.42496276,0.052926607,-0.37611088,-0.28651235,-0.1478293,-0.09112845,0.5082825,0.118761346,-0.082022116,0.018007902,0.08227868,-0.10848387,0.31165004,0.020226369,0.24940455,0.32823765,0.20086719,0.37416652,0.20121443,-0.20488484,-0.37165365,0.23529544,-0.12835848,0.2825188,0.51582587,-0.2855434,0.03172724,0.5828799,-0.37143022,0.57449627,-0.48192477,-0.409053,1.0930732,0.890683,1.1664138,1.2172556,0.57791626,0.96945137,1.1955515,1.5027081,1.1651232,1.6949631,1.3759451,0.97910875,1.1371675,0.7908311,1.3243092,1.2977813,1.2942407,1.1734,1.2564536,1.3175852,1.6324222,1.173208,1.6178651,1.0976918,1.3259662,0.84122664,0.82958853,1.0840789,1.0451719,1.1992635,1.0257169,1.5006018,1.3031666,1.3059498,0.98538375,1.5167454,1.0486014,1.7589185,0.97374064,1.1984154,1.8268378,1.376521,1.2084966,1.5247192,0.87555546,0.97623897,1.3163865,1.2450264,1.0439098,0.98206127,1.209401,1.3626369,1.7148933,1.9626241,1.3201144,1.0655805,1.6067911,1.5637174,1.1500111,2.0038154,1.2295972,1.2760313,1.6048752,1.4058571,1.209727,2.0808146,1.547403,1.375855,1.0223806,1.674486,1.1019528,1.2993869,1.066623,1.5649053,0.50712335,1.0240505,1.4770029,1.157351,0.7015827,1.1450354,1.1997594,0.84179616,1.261941,1.3615766,1.213571,1.3080823,0.8189222,0.6525237,0.9057216,0.92907,1.7518946,0.80551517,0.955654,1.0198019,1.2714864,0.62260985,1.323662,0.8381257,1.4777539,0.46474102,1.4818169,0.6058851,1.0594465,1.2507399,1.1199224,1.1938539,1.3417014,1.9345978,1.2737788,1.1405828,1.5433637,1.4450059,1.0876762,2.6880116,1.3685433,1.0195848,1.0837033,1.0736222,1.4643836,1.2954519,0.90384364,3.2309673,1.4824111,1.1596138,1.1060606,0.8634592,1.0035441,0.9826557,1.7285165,1.1470149,2.201715,0.9075325,0.99070317,2.2123737,1.3673404,0.87951285,1.7642046,1.0026591,1.0475619,1.5008689,1.0983386,1.4190005,1.2988148,1.3706299,1.2158507,1.2894689,1.2907811,1.0258229,1.2867731,0.87005883,1.3127543,1.6146046,1.4101317,1.6271123,1.3605196,0.8765146,1.5561266,1.2244042,1.6249099,1.1844771,1.5822037,1.438802,1.022892,0.830459,2.5105584,0.49048072,1.3730648,1.2054298,0.92395926,1.4335686,1.2445129,1.948623,0.009676366,1.446078,0.7338716,0.6458273,1.59303,1.1226666,1.1734836,0.87146276,1.3133049,0.7922723,1.9777011,1.2421395,1.1133233,1.3212737,1.478407,0.7225917,0.95550793,1.8733872,1.35512,1.3525121,1.4245604,1.0359339,1.5013033,0.78551173,1.372782,0.82868403,1.4113168,1.3723301,1.2105415,1.7299596,1.7865492,1.231951,0.67394435,1.7074739,0.959128,1.1599511,0.56747353,1.4682094,1.4553126,0.7996778,2.050991,1.0114988,1.8517481,0.57222784,1.2437083,1.3938475,0.79891664,0.4811969,1.86166,1.48321,1.6288832,0.95968884,1.3846533,1.9393239,0.52732533,0.37927163,0.73035794,0.73390573,1.4377012,1.1910261,1.1305051,1.4338233,0.91810524,1.5512798,0.9252744,1.6776173,1.5249182,1.5284067,1.4041713,0.86665976,0.7347421,1.2942225,1.4687036,2.8664908,0.8643181,1.0790545,1.7953148,0.788463,0.82987547,1.5040128,0.5046333,1.7017324,1.8054054,1.2424392
Cc1cccc(NC(=O)N2CCN(Cc3ccc(Cl)cc3)CC2)c1,-0.60758877,0.77370316,-0.2159906,0.37556067,-0.06910297,0.21172507,-0.22355847,0.85226744,0.12094175,-0.086511485,-0.55706483,0.38365626,-0.28934774,0.05925062,0.37194866,0.08926045,-0.22411305,-0.23604375,0.21770635,0.0591681,-0.38842165,-0.28726542,0.28458753,0.4627167,0.15584898,-0.6418414,-0.08054943,-0.9613499,-0.19631712,0.1037236,-0.20596734,0.7373076,1.0755354,0.37128454,-0.27718773,0.8761209,0.66476107,-0.049067497,0.013803303,-0.69456744,-0.18755476,0.9105988,0.42909774,0.3506753,-0.10891464,-0.013735401,0.28910044,-0.117879406,0.14054091,0.37894493,-0.12209218,-0.1351485,0.19414611,0.015879013,-0.55603534,-0.22573394,0.20965374,0.1076677,-0.38096973,-0.18535198,0.60960376,0.36581314,0.04912848,0.11970695,-0.22559986,0.7766416,-0.26946712,0.07331788,0.30086944,0.1780501,-0.59160674,0.008814318,-0.84948146,-0.46438172,-1.4753728,-0.25241953,0.26470786,0.33361095,-0.7825953,0.22571199,-0.707991,0.9395927,-0.602592,-0.23157202,0.053090703,0.012196318,-0.73482305,-0.4432622,-0.040802892,-0.214819,-0.20319729,0.44437036,-0.2288807,-0.2475782,-0.9062459,-1.3917025,-0.13037626,-0.9572135,-0.11319694,0.31379452,0.066404,0.27830923,-0.21114284,-0.5394848,-0.7658023,0.36830518,-0.54539007,-1.090001,0.10981916,0.5318086,-0.29646724,0.067323774,-0.13437448,-1.5761176,-0.18281426,-0.6401275,-0.2606673,0.28565523,0.15669814,-0.116339035,0.47268635,-1.0754912,0.1608945,-0.5027411,0.15063919,-0.10247139,0.20378031,-0.24819325,1.1242613,0.07735751,0.43446943,-1.0553093,0.46140626,-0.37885523,-0.30856144,-0.34789652,0.74095,0.08038818,-0.13165501,0.3325952,0.7865364,0.12032768,0.4817248,-0.80131006,0.27982715,0.3195788,-0.51632684,-0.38293695,0.6107514,0.25598302,1.3190876,0.021330444,0.5397078,-0.07267236,-0.19150157,-0.11892606,-0.32146713,-0.69814503,0.8976374,-0.08407126,-0.22173421,0.69048566,0.13735972,0.2872283,-0.038125712,-0.08121112,-0.8259853,0.35266575,1.0111119,0.541896,0.2534411,-0.73285586,0.15776202,-0.025772322,0.5060942,-0.21199964,-0.2147581,-0.12895612,-0.35393304,0.06577634,0.06792437,0.68915856,-0.6613383,0.20150812,0.47681203,-0.17233631,0.75458986,-0.20315334,-0.6066608,-0.20376746,0.34561965,-0.51976144,0.11996087,0.48897085,-0.74750435,1.1331849,0.49288663,0.4796933,0.039073113,-0.34441328,-0.33413994,-0.30251652,0.48954353,0.49855408,0.36226997,0.42272007,-0.90586096,-0.2847598,-0.41659698,0.08352562,0.2388264,0.46545544,-0.24331932,-0.80255765,-0.08125547,-0.28847924,0.32602155,-0.5717115,0.8077787,0.31683648,-0.06126409,-0.26776972,0.34970304,0.030988831,-0.40411896,-0.24086434,-0.7702135,-0.00915347,0.17591797,0.43535304,0.23726335,0.34026468,-0.6393578,0.06541502,0.3693867,0.22782876,-0.032820348,0.012572879,0.32501936,0.48944783,0.1850446,0.37797707,-0.12270357,-0.12491339,0.39136362,-0.17318408,-0.5577543,0.83747995,-0.2313683,0.8093047,0.053361855,1.3402472,-0.41601396,0.21713208,0.17358463,0.29740414,0.8516409,1.4667296,1.073556,1.0352852,1.0637813,1.5292805,0.69013953,1.6664816,0.9422068,0.7907711,0.9327623,0.895849,0.5938561,0.8797477,1.0119435,1.4351081,0.6831508,1.1235222,1.5505562,0.9721917,0.8472819,1.014796,1.6303002,1.1112446,1.6519943,0.8195355,1.2894589,0.85135734,1.7132612,1.4813447,0.85686797,1.6561577,1.6735636,1.6826044,1.5108685,1.810051,2.1558917,1.007929,0.8497411,1.1481079,1.2814779,2.0168514,1.1898255,1.0909,1.0122062,1.8712966,1.6775025,1.6049815,0.9250905,1.2148378,0.9108261,1.1152139,2.3410642,1.0398328,1.5828676,0.5272054,1.117871,2.6782773,1.2263267,1.4939393,1.6677728,1.0457298,0.96577597,1.3561988,1.6202255,1.8506651,0.60608196,1.0115299,1.0927685,1.44474,1.1907864,1.2488357,0.8070809,1.7666783,1.8452548,1.5675057,1.3976957,1.3389778,1.1011407,1.3570355,2.2204778,1.9375143,1.0002822,1.0177536,2.1783314,1.934104,0.4885486,1.1787001,1.1809977,0.7390441,2.1995716,1.5680271,1.4012324,1.2038369,1.0592442,1.5485253,0.7384332,0.68652815,1.358867,0.9089443,1.2500767,1.9533639,1.0954247,1.2944965,1.428251,1.0946928,0.79338396,2.0644495,1.1485662,1.4917269,1.2497045,1.4172406,0.9131922,1.5466638,1.1550701,0.8325454,1.0675988,2.0382047,1.3243387,1.0757183,1.3445958,3.742577,1.7075982,1.2947034,1.0701737,1.7306755,1.0971998,2.5001612,2.0999696,1.4128983,1.2228444,0.42192474,1.8407648,1.9666449,1.4410821,1.6256126,1.5594984,1.136748,1.2785705,1.4937301,1.7634403,1.4078078,1.3007084,1.6375941,1.5618733,1.1323612,1.4945298,1.5151877,1.6724387,1.3044083,2.3653426,1.1501534,1.4554452,0.9724725,1.1342524,1.3274137,0.8145268,0.8236887,2.047834,1.2234343,1.1476712,1.2598569,1.0894705,1.2284317,1.6014518,0.8730644,1.3883466,1.5371515,1.7692503,1.2124106,1.0407821,1.730191,0.5642974,1.0619853,1.367315,0.84123844,0.88645643,1.4636981,0.7429058,0.88097185,2.0005884,1.4075005,1.486947,1.6400075,1.1344588,1.0238018,1.4076569,2.0700324,1.1770561,2.172043,1.4439173,1.3015695,1.0367078,1.115963,1.471945,2.3249905,1.4544228,1.5850676,1.1646988,1.0719895,0.6387405,0.89892864,1.8687003,1.3716478,1.0952952,1.4840918,1.1709656,1.277902,1.6085621,0.9709576,0.9245363,1.2249542,3.616257,1.2447956,1.5922918,0.69655204,1.958945,2.2052357,1.7565566,1.0189453,1.4821756,1.0416944,1.3578079,1.6150855,1.4178928,1.9840993,0.8068141,1.0422479,1.0616828,1.1844714,1.6261266,1.0284028,2.2381084,1.5612624,1.5237594,1.4780751,0.8824622,1.0075645,1.3260697,1.7348131,1.2035482,1.4024365,1.1651496,1.2663038,1.406375,2.1443958,0.9945668,1.4991853,0.69536865,1.5725187,1.6412637,2.264521,1.0519975,1.0936117,1.1822659,1.4502742,-0.09974838,-0.00806467,0.43488926,0.10878095,-0.6515061,-0.16156591,0.2735883,0.1976358,0.15426818,-0.045277566,-0.1837384,0.17216507,-0.0097896,-0.29029977,-0.10531802,0.597126,0.07005558,-0.30257326,0.07007415,0.41972375,0.29499123,-0.34774524,-0.25355178,0.017573161,0.41561168,-0.15800898,-0.17518875,-0.10742522,-0.38063148,0.2655975,0.10882149,0.13620248,0.71570617,-0.015932992,-0.55702454,0.37139836,-0.14502227,0.7367145,0.06271069,-0.31643677,0.5639071,0.08454242,-0.022624442,0.46733165,0.1052954,-0.03276954,0.1727369,-0.09546719,-0.37154526,0.11645645,-0.042242613,-0.3993514,0.13050485,0.09796302,0.16337335,-0.26377675,0.67839366,-0.04429368,-0.03350053,0.18318066,0.34442735,0.2196431,-0.0030015756,0.0076341936,-0.2654548,0.65321887,0.23422295,0.40801737,-0.5275625,0.49054763,-0.7242019,-0.60092896,-0.7745274,0.40705338,-0.8572706,-0.2783966,-0.6850773,-0.096869186,-0.92112833,-0.296847,-0.7800978,-0.43702027,-0.27267417,0.10226421,-0.68566406,-0.76662755,-0.91934466,-0.6636902,-0.4929076,-0.25276998,-0.7401735,-0.28255448,-0.25307503,-0.33165425,-0.30524078,-0.8044491,-0.3954567,-0.31672886,-0.077127025,-0.8220299,-0.50346106,-1.0903554,-0.19668883,-0.39432776,-0.39064234,-0.51020133,-0.29262984,-0.49287772,-0.092074156,-0.97229314,0.23547289,-0.7727341,-0.3739561,0.27141342,0.6620943,-0.38361835,0.18366422,-0.83938986,0.45809424,-0.7012862,0.094249755,-0.9293547,0.5711914,-0.52396995,0.2551655,-0.13365269,0.39614272,-0.23399973,0.90699494,-0.6515755,1.1703318,-0.09339398,0.46176326,-0.3406843,0.0864581,-0.063380845,0.6699412,-0.18067367,0.22047277,-0.0055122785,0.33177033,-0.7282998,0.384565,-0.061165895,0.4444061,0.22218749,0.45078295,-0.025618598,0.27383003,-0.29680115,0.36097375,-0.3389718,0.6732001,-0.3367922,0.25614995,-0.084698156,0.27028874,-0.45648593,0.67755574,0.13673796,0.60330266,0.010150751,0.25965405,0.26471564,0.7446647,0.012765725,0.38474154,0.29165325,0.06861508,0.37008306,0.11155029,0.93369216,-0.08248338,-0.0463524,0.0016414924,-0.106882356,0.4290002,0.24439113,0.19870579,0.07964328,0.026497673,0.17717884,0.439894,-0.28748065,-0.0747474,-0.40446237,0.58421695,0.024967335,0.20162477,0.2457447,0.31244954,0.5137598,0.60376436,0.5466503,0.22496305,0.14393212,0.6077139,-0.10534063,0.64462024,0.7830957,0.092494726,0.24026795,0.42654687,0.34773386,-0.14968172,0.06634706,-0.2010178,0.103887975,-0.5727171,0.32969964,0.44828686,0.18040982,-0.17423083,-0.10907837,0.43231985,-0.48481196,0.47027987,0.22169329,-0.47935635,-0.33140242,0.07989448,-0.099722125,0.1520761,-0.14562841,0.39859697,-0.052233543,-0.3554584,-0.10902834,-0.09876304,0.13972977,0.8024692,-0.045455165,-0.03183142,-0.0701563,0.24735503,-0.042835645,0.3669975,0.09851738,0.04029696,0.2836314,0.187421,0.18353818,0.35396466,-0.038171854,-0.39386278,0.2648394,-0.031636164,0.3976124,0.02834351,-0.2509603,-0.14047945,0.6182051,-0.4137451,0.42380664,-0.47268212,-0.40278488,0.9905748,0.652374,1.3013324,1.1110511,0.83556795,0.8170111,1.2537944,0.78157616,0.9961154,1.7643524,0.8365836,0.72522724,0.936799,0.76452976,1.0181525,1.5357275,1.0384145,1.1851184,1.5214477,1.4845705,1.38772,1.0542544,1.7163552,0.7214356,1.1993092,0.7224487,0.9374755,1.3806688,1.4211458,1.4836234,1.227527,1.6557475,1.4746317,1.2249255,0.72555447,1.2308398,0.843495,1.6746588,0.86869556,1.4841489,1.7922273,1.1283183,1.145448,1.3898203,1.0570118,0.8311872,1.1340443,1.0950339,1.01671,1.3138008,1.1115661,1.8725516,1.4376909,1.6896046,1.1424874,1.0686207,1.7664405,2.2777686,1.3202428,1.782344,1.4459355,1.0695201,1.3142831,1.430013,0.88931817,2.1424305,1.4355729,1.5069004,0.98862606,1.7472452,1.130301,0.90271884,0.8629432,1.5245609,0.7828739,1.057608,1.0342228,1.1040545,0.98742837,0.9580187,0.95209247,1.2135305,1.0809774,1.1945523,1.1338288,1.0313185,1.0755066,1.0639635,0.70993996,0.9257914,1.9918362,0.91855407,0.88426495,0.7301715,1.0625203,0.5825643,1.20505,0.93880945,1.4557332,1.0441269,1.0755285,0.5463751,0.9688051,1.172913,1.3658656,1.4023688,0.7575633,2.0271025,1.4062234,1.1545991,1.4379542,1.5003203,1.0412915,2.8195233,1.691825,1.0453134,1.1586964,1.0371653,1.2473626,1.1706184,0.9733261,3.6671822,1.5115004,0.8833321,1.0080156,0.94899064,0.9315335,0.8726236,1.9017848,1.0964016,2.4013083,1.0219412,1.3970745,1.9059882,1.3889658,1.0477821,1.542658,0.6481299,1.1666943,1.3934373,1.2408106,0.68838125,1.3287884,1.2531137,1.3598255,1.3868753,1.3936743,1.2356728,1.2002499,1.088705,1.0624232,0.9982072,1.3662777,1.511609,1.1358145,1.0731721,1.2762046,0.86925364,1.7303535,1.2535305,1.4561927,1.770165,1.3940985,0.9867705,1.7832311,0.6906423,1.4199618,1.1161724,0.6985846,1.4341983,1.0864186,2.1067176,0.45108774,1.2863798,0.72712517,0.57275146,1.452416,1.090374,0.94507253,0.8090739,1.5616748,0.7676683,1.403503,1.1567655,0.91234654,1.1262181,1.7843522,1.11526,0.997348,2.627069,1.6594473,1.2357385,1.7731313,1.1552314,1.7389321,1.1951389,1.9639308,0.90534455,1.4515945,1.4121852,0.99856764,1.0621186,1.5775688,1.2325516,0.8260144,1.6780479,0.59527326,1.1153775,0.74936116,1.4785581,1.1852093,1.1844945,2.164617,1.331322,1.6108605,0.6229017,1.5812604,1.2932323,0.35468122,0.74227566,1.5736392,0.7978486,1.3296912,1.3344741,2.0645695,1.7914542,0.6814737,0.9641738,0.9170435,1.2562753,1.8492684,0.8870916,1.6871176,1.2981133,1.2204381,0.9871701,0.9661899,0.8482685,1.4034003,1.3559636,1.7765058,0.7623425,1.0399545,1.2809235,1.3029053,2.781154,1.4263005,1.548974,1.409963,0.77439845,0.6084827,1.3115894,0.8390799,1.8357799,1.5029476,1.8586752
